tree
version=v4
num_class=1
num_tree_per_iteration=1
label_index=0
max_feature_idx=14
objective=regression
feature_names=prev_arrival_secs distance_prev_km speed_kmh traffic_time_sec temp_c rain_flag humidity rain_x_traffic hour_sin hour_cos dow_sin dow_cos rolling_tt3 delay_trend travel_time_rainy
feature_infos=[18600:73320] [0:7.1928159672339165] [0:92.947902213916279] [51:3593] [10.470000000000001:18.899999999999999] [0:1] [74:100] [0:1241] [-1:1] [-1:0.50000000000000011] [-0.97492791218182362:0.43388373911755823] [-0.90096886790241903:1] [20:580] [-260:540] [15:900]
tree_sizes=1027 1294 1292 1210 1377 1296 1292 1124 1123 1209 1388 1292 1046 1215 1290 1461 1215 1298 1297 1124 1136 1298 1289 1375 1216 1215 1138 1141 1308 1222 1310 1305 1310 1309 1313 1388 1383 1483 1486 1471 1301 1563 1395 1390 1572 1737 1659 1486 1986 2780 2691 2768 2431 2781 2780 2769 2692 2602 2601 2608 2517 2608 2769 2783 2787 2831 2839 2840 2818 2823 2827 2805 2826 2818 2835 2822 2830 2820 2831 2829 2819 2799 2803 2830 2817 2819 2805 2783 2789 2781 2781 2776 2792 2792 2814 2807 2792 2807 2786 2811 2785 2806 2802 2808 2793 2801 2805 2814 2789 2791 2809 2805 2815 2821 2803 2821 2834 2829 2839 2828 2806 2836 2830 2825 2838 2816 2841 2845 2838 2841 2840 2831 2849 2833 2841 2847 2853 2857 2852 2836 2859 2842 2861 2846 2861 2848 2872 2870 2855 2881 2887 2876 2879 2886 2845 2890 2895 2890 2890 2886 2885 2881 2886 2886 2886 2878 2888 2885 2874 2894 2892 2892 2886 2867 2892 2906 2886 2888 2899 2889 2901 2922 2903 2907 2919 2912 2916 2906 2911 2910 2917

Tree=0
num_leaves=11
num_cat=0
split_feature=14 1 14 13 1 14 14 0 11 0
split_gain=3.29086e+07 6.6457e+06 6.07223e+06 903842 232830 89022.4 16090.8 2526.32 573.75 4.54747e-13
threshold=360.00000000000006 2.8186699954093055 127.50000000000001 50.000000000000007 1.965038216877397 97.500000000000014 67.500000000000014 38370.000000000007 0.8117449009293668 49710.000000000007
decision_type=2 2 2 2 2 2 2 2 2 2
left_child=2 -2 5 -4 -5 6 8 -3 -1 -7
right_child=1 7 3 4 -6 9 -8 -9 -10 -11
leaf_value=126.16463429765616 144.1646346791259 165.83130134579255 129.91463415460501 132.91463429765616 138.16463391618643 129.16463415460501 126.9146341069213 165.1646346791259 125.82713429765616 129.16463415460501
leaf_weight=34 102 27 365 527 22 24 1945 30 20 20
leaf_count=34 102 27 365 527 22 24 1945 30 20 20
internal_value=129.647 151.806 128.455 131.843 133.125 126.94 126.891 165.48 126.04 129.165
internal_weight=0 159 2957 914 549 2043 1999 57 54 44
internal_count=3116 159 2957 914 549 2043 1999 57 54 44
is_linear=0
shrinkage=1


Tree=1
num_leaves=14
num_cat=0
split_feature=14 1 14 13 1 14 14 0 0 0 0 0 0
split_gain=2.97e+07 5.99774e+06 5.48019e+06 815718 210129 80342.7 14521.9 2279.99 525.067 9.31323e-10 2.32831e-10 4.65661e-10 4.54747e-13
threshold=360.00000000000006 2.8186699954093055 127.50000000000001 50.000000000000007 1.965038216877397 97.500000000000014 67.500000000000014 38370.000000000007 36930.000000000007 68910.000000000015 68550.000000000015 40470.000000000007 49710.000000000007
decision_type=2 2 2 2 2 2 2 2 2 2 2 2 2
left_child=2 -2 5 -4 10 6 8 -3 -1 -8 11 -5 -7
right_child=1 7 3 4 -6 12 9 -9 -10 -11 -12 -13 -14
leaf_value=-3.6224281311035158 13.791767883300782 34.375101725260421 0.25426828861236572 3.104268264770508 8.0917686462402347 -0.45823168754577637 -2.5957317352294922 33.741769409179689 -3.3026067097981775 -2.5957317352294922 3.104268264770508 3.104268264770508 -0.45823168754577637
leaf_weight=21 102 27 365 212 22 24 1880 30 33 65 22 293 20
leaf_count=21 102 27 365 212 22 24 1880 30 33 65 22 293 20
internal_value=0 21.0512 -1.13194 2.08619 3.30413 -2.57167 -2.61819 34.0418 -3.42698 -2.59573 3.10427 3.10427 -0.458232
internal_weight=0 159 2957 914 549 2043 1999 57 54 1945 527 505 44
internal_count=3116 159 2957 914 549 2043 1999 57 54 1945 527 505 44
is_linear=0
shrinkage=0.05


Tree=2
num_leaves=14
num_cat=0
split_feature=14 1 14 13 1 14 14 0 11 0 0 0 0
split_gain=2.68043e+07 5.41296e+06 4.94587e+06 736185 189642 72509.3 13106 2057.7 512.808 2.32831e-10 2.32831e-10 1.81899e-12 4.54747e-13
threshold=360.00000000000006 2.8186699954093055 127.50000000000001 50.000000000000007 1.965038216877397 97.500000000000014 67.500000000000014 38370.000000000007 0.8117449009293668 67050.000000000015 63330.000000000007 67530.000000000015 49710.000000000007
decision_type=2 2 2 2 2 2 2 2 2 2 2 2 2
left_child=2 -2 5 11 9 6 8 -3 -1 10 -5 -4 -7
right_child=1 7 3 4 -6 12 -8 -9 -10 -11 -12 -13 -14
leaf_value=-3.137457421246697 13.102180480957031 32.656345621744798 0.24155488014221194 2.9490549087524416 7.6871795654296875 -0.43532013893127441 -2.4659450531005862 32.054678344726561 -3.4565303802490237 2.9490549087524416 2.9490549087524416 0.24155488014221194 -0.43532013893127441
leaf_weight=34 102 27 339 447 22 24 1945 30 20 40 40 26 20
leaf_count=34 102 27 339 447 22 24 1945 30 20 40 40 26 20
internal_value=0 19.9986 -1.07534 1.98188 3.13893 -2.44308 -2.48728 32.3397 -3.25563 2.94905 2.94905 0.241555 -0.43532
internal_weight=0 159 2957 914 549 2043 1999 57 54 527 487 365 44
internal_count=3116 159 2957 914 549 2043 1999 57 54 527 487 365 44
is_linear=0
shrinkage=0.05


Tree=3
num_leaves=13
num_cat=0
split_feature=14 1 14 13 1 14 14 0 9 0 0 0
split_gain=2.41909e+07 4.8852e+06 4.46365e+06 664407 171152 65439.6 11828.2 1857.07 504.598 9.31323e-10 9.31323e-10 2.32831e-10
threshold=360.00000000000006 2.8186699954093055 127.50000000000001 50.000000000000007 1.965038216877397 97.500000000000014 67.500000000000014 38370.000000000007 -0.60355339059327384 57750.000000000007 71040.000000000015 65250.000000000007
decision_type=2 2 2 2 2 2 2 2 2 2 2 2
left_child=2 9 5 -4 11 6 8 -3 -1 -2 -8 -5
right_child=1 7 3 4 -6 -7 10 -9 -10 -11 -12 -13
leaf_value=-2.9709244352398496 12.447071075439453 31.023530069986982 0.2294771432876587 2.8016021728515628 7.3028205871582035 -0.41355409622192385 -2.3426479339599608 30.451947021484376 -3.2844499043055944 12.447071075439453 -2.3426479339599608 2.8016021728515628
leaf_weight=33 81 27 365 467 22 44 1918 30 21 21 27 60
leaf_count=33 81 27 365 467 22 44 1918 30 21 21 27 60
internal_value=0 18.9987 -1.02157 1.88279 2.98198 -2.32093 -2.36291 30.7227 -3.09285 12.4471 -2.34265 2.8016
internal_weight=0 159 2957 914 549 2043 1999 57 54 102 1945 527
internal_count=3116 159 2957 914 549 2043 1999 57 54 102 1945 527
is_linear=0
shrinkage=0.05


Tree=4
num_leaves=15
num_cat=0
split_feature=14 1 14 13 1 14 14 0 11 0 0 0 0 0
split_gain=2.18323e+07 4.40889e+06 4.02844e+06 599627 154464 59059.3 10674.9 1676 458.175 9.31323e-10 9.31323e-10 2.32831e-10 5.82077e-11 1.45519e-11
threshold=360.00000000000006 2.8186699954093055 127.50000000000001 50.000000000000007 1.965038216877397 97.500000000000014 67.500000000000014 38370.000000000007 0.8117449009293668 53730.000000000007 65310.000000000007 29760.000000000004 71040.000000000015 26970.000000000004
decision_type=2 2 2 2 2 2 2 2 2 2 2 2 2 2
left_child=2 9 5 -4 11 6 8 -3 -1 -2 -8 13 -12 -5
right_child=1 7 3 4 -6 -7 10 -9 -10 -11 12 -13 -14 -15
leaf_value=-2.8265056049122532 11.824716949462891 29.472352091471357 0.21800327301025391 2.6615221023559572 6.9376800537109382 -0.39287641048431399 -2.2255155563354494 28.929348754882813 -3.128103303909302 11.824716949462891 -2.2255155563354494 2.6615221023559572 -2.2255155563354494 2.6615221023559572
leaf_weight=34 72 27 365 20 22 44 1761 30 20 30 157 486 27 21
leaf_count=34 72 27 365 20 22 44 1761 30 20 30 157 486 27 21
internal_value=0 18.0488 -0.970496 1.78865 2.83288 -2.20488 -2.24477 29.1866 -2.93821 11.8247 -2.22552 2.66152 -2.22552 2.66152
internal_weight=0 159 2957 914 549 2043 1999 57 54 102 1945 527 184 41
internal_count=3116 159 2957 914 549 2043 1999 57 54 102 1945 527 184 41
is_linear=0
shrinkage=0.05


Tree=5
num_leaves=14
num_cat=0
split_feature=14 1 14 13 1 14 14 0 9 0 0 0 0
split_gain=1.97036e+07 3.97903e+06 3.63567e+06 541164 139404 53301 9634.13 1512.6 451.018 9.31323e-10 9.31323e-10 2.32831e-10 1.81899e-12
threshold=360.00000000000006 2.8186699954093055 127.50000000000001 50.000000000000007 1.965038216877397 97.500000000000014 67.500000000000014 38370.000000000007 -0.60355339059327384 53730.000000000007 67830.000000000015 65190.000000000007 54870.000000000007
decision_type=2 2 2 2 2 2 2 2 2 2 2 2 2
left_child=2 9 5 12 11 6 8 -3 -1 -2 -8 -5 -4
right_child=1 7 3 4 -6 -7 10 -9 -10 -11 -12 -13 -14
leaf_value=-2.6760262922807172 11.233481597900392 27.99873453776042 0.20710310935974122 2.5284460067749026 6.5907958984375004 -0.37323257923126224 -2.1142396926879883 27.482879638671875 -2.9724393027169365 11.233481597900392 -2.1142396926879883 2.5284460067749026 0.20710310935974122
leaf_weight=33 72 27 230 464 22 44 1858 30 21 30 87 63 135
leaf_count=33 72 27 230 464 22 44 1858 30 21 30 87 63 135
internal_value=0 17.1463 -0.921971 1.69921 2.69124 -2.09464 -2.13253 27.7272 -2.7913 11.2335 -2.11424 2.52845 0.207103
internal_weight=0 159 2957 914 549 2043 1999 57 54 102 1945 527 365
internal_count=3116 159 2957 914 549 2043 1999 57 54 102 1945 527 365
is_linear=0
shrinkage=0.05


Tree=6
num_leaves=14
num_cat=0
split_feature=14 1 14 13 1 14 14 0 0 0 0 0 0
split_gain=1.77825e+07 3.59107e+06 3.28119e+06 488400 125812 48104.2 8694.81 1365.12 436.985 9.31323e-10 4.65661e-10 4.65661e-10 9.09495e-13
threshold=360.00000000000006 2.8186699954093055 127.50000000000001 50.000000000000007 1.965038216877397 97.500000000000014 67.500000000000014 38370.000000000007 36930.000000000007 57750.000000000007 39270.000000000007 70110.000000000015 65730.000000000015
decision_type=2 2 2 2 2 2 2 2 2 2 2 2 2
left_child=2 9 5 12 -5 6 8 -3 -1 10 -2 -8 -4
right_child=1 7 3 4 -6 -7 11 -9 -10 -11 -12 -13 -14
leaf_value=-2.8300341469900951 10.671807098388673 26.598798624674483 0.19674795866012573 2.4020236968994144 6.2612560272216804 -0.35457096099853519 -2.0085277557373047 26.10873718261719 -2.5382688233346649 10.671807098388673 10.671807098388673 -2.0085277557373047 0.19674795866012573
leaf_weight=21 42 27 323 527 22 44 1906 30 33 21 39 39 42
leaf_count=21 42 27 323 527 22 44 1906 30 33 21 39 39 42
internal_value=0 16.289 -0.875872 1.61425 2.55667 -1.98991 -2.0259 26.3409 -2.65173 10.6718 10.6718 -2.00853 0.196748
internal_weight=0 159 2957 914 549 2043 1999 57 54 102 81 1945 365
internal_count=3116 159 2957 914 549 2043 1999 57 54 102 81 1945 365
is_linear=0
shrinkage=0.05


Tree=7
num_leaves=12
num_cat=0
split_feature=14 1 14 13 1 14 14 0 11 0 0
split_gain=1.60487e+07 3.24094e+06 2.96127e+06 440781 113546 43414 7847.06 1232.02 405.305 4.65661e-10 9.09495e-13
threshold=360.00000000000006 2.8186699954093055 127.50000000000001 50.000000000000007 1.965038216877397 97.500000000000014 67.500000000000014 38370.000000000007 0.8117449009293668 57750.000000000007 65730.000000000015
decision_type=2 2 2 2 2 2 2 2 2 2 2
left_child=2 9 5 10 -5 6 8 -3 -1 -2 -4
right_child=1 7 3 4 -6 -7 -8 -9 -10 -11 -12
leaf_value=-2.4140859155093923 10.138217163085939 25.268857828776042 0.18691055774688722 2.2819223403930664 5.9481933593750007 -0.33684241771697998 -1.908101272583008 24.80330047607422 -2.6977494049072268 10.138217163085939 0.18691055774688722
leaf_weight=34 81 27 323 527 22 44 1945 30 20 21 42
leaf_count=34 81 27 323 527 22 44 1945 30 20 21 42
internal_value=0 15.4746 -0.832079 1.53354 2.42884 -1.89041 -1.92461 25.0238 -2.51915 10.1382 0.186911
internal_weight=0 159 2957 914 549 2043 1999 57 54 102 365
internal_count=3116 159 2957 914 549 2043 1999 57 54 102 365
is_linear=0
shrinkage=0.05


Tree=8
num_leaves=12
num_cat=0
split_feature=14 1 14 13 1 14 14 0 9 0 0
split_gain=1.4484e+07 2.92495e+06 2.67255e+06 397805 102475 39181.1 7081.98 1111.9 390.708 1.16415e-10 9.09495e-13
threshold=360.00000000000006 2.8186699954093055 127.50000000000001 50.000000000000007 1.965038216877397 97.500000000000014 67.500000000000014 38370.000000000007 -0.60355339059327384 63090.000000000007 66150.000000000015
decision_type=2 2 2 2 2 2 2 2 2 2 2
left_child=2 -2 5 10 9 6 8 -3 -1 -5 -4
right_child=1 7 3 4 -6 -7 -8 -9 -10 -11 -12
leaf_value=-2.2859009309248495 9.631306457519532 24.00541483561198 0.17756502628326418 2.167826271057129 5.6507835388183594 -0.3200002908706665 -1.8126962661743165 23.563134765625001 -2.5617849622453965 2.167826271057129 0.17756502628326418
leaf_weight=33 102 27 327 444 22 44 1945 30 21 83 38
leaf_count=33 102 27 327 444 22 44 1945 30 21 83 38
internal_value=0 14.7008 -0.790475 1.45686 2.3074 -1.79589 -1.82838 23.7726 -2.39319 2.16783 0.177565
internal_weight=0 159 2957 914 549 2043 1999 57 54 527 365
internal_count=3116 159 2957 914 549 2043 1999 57 54 527 365
is_linear=0
shrinkage=0.05


Tree=9
num_leaves=13
num_cat=0
split_feature=14 1 14 13 1 14 14 0 0 0 0 0
split_gain=1.30718e+07 2.63977e+06 2.41198e+06 359019 92483.5 35361 6391.48 1003.49 378.964 1.16415e-10 9.09495e-13 4.54747e-13
threshold=360.00000000000006 2.8186699954093055 127.50000000000001 50.000000000000007 1.965038216877397 97.500000000000014 67.500000000000014 38370.000000000007 36930.000000000007 63090.000000000007 67950.000000000015 62970.000000000007
decision_type=2 2 2 2 2 2 2 2 2 2 2 2
left_child=2 -2 5 10 9 6 8 -3 -1 -5 11 -4
right_child=1 7 3 4 -6 -7 -8 -9 -10 -11 -12 -13
leaf_value=-2.4395721980503629 9.1497406005859379 22.805144755045575 0.16868678331375123 2.0594350814819338 5.368244552612305 -0.30400028228759768 -1.722061347961426 22.384979248046875 -2.1678662964791964 2.0594350814819338 0.16868678331375123 0.16868678331375123
leaf_weight=21 102 27 298 444 22 44 1945 30 33 83 20 47
leaf_count=21 102 27 298 444 22 44 1945 30 33 83 20 47
internal_value=0 13.9658 -0.750951 1.38402 2.19203 -1.7061 -1.73696 22.584 -2.27353 2.05944 0.168687 0.168687
internal_weight=0 159 2957 914 549 2043 1999 57 54 527 365 345
internal_count=3116 159 2957 914 549 2043 1999 57 54 527 365 345
is_linear=0
shrinkage=0.05


Tree=10
num_leaves=15
num_cat=0
split_feature=14 1 14 13 1 14 14 0 11 0 0 0 0 0
split_gain=1.17973e+07 2.38239e+06 2.17681e+06 324015 83466.4 31913.3 5768.31 905.645 358.609 4.65661e-10 2.32831e-10 2.32831e-10 1.16415e-10 9.09495e-13
threshold=360.00000000000006 2.8186699954093055 127.50000000000001 50.000000000000007 1.965038216877397 97.500000000000014 67.500000000000014 38370.000000000007 0.8117449009293668 42930.000000000007 69090.000000000015 58170.000000000007 68550.000000000015 62970.000000000007
decision_type=2 2 2 2 2 2 2 2 2 2 2 2 2 2
left_child=2 9 5 13 12 6 8 -3 -1 -2 11 -8 -5 -4
right_child=1 7 3 4 -6 -7 10 -9 -10 -11 -12 -13 -14 -15
leaf_value=-2.0610299615299001 8.6922538757324226 21.664887491861979 0.16025243997573854 1.9564632415771486 5.099832153320313 -0.28880026340484621 -1.6359582901000977 21.265730285644533 -2.3278527832031251 8.6922538757324226 -1.6359582901000977 -1.6359582901000977 1.9564632415771486 0.16025243997573854
leaf_weight=34 54 27 298 505 22 44 1438 30 20 48 58 449 22 67
leaf_count=34 54 27 298 505 22 44 1438 30 20 48 58 449 22 67
internal_value=0 13.2675 -0.713403 1.31482 2.08243 -1.62079 -1.65011 21.4548 -2.15985 8.69225 -1.63596 -1.63596 1.95646 0.160252
internal_weight=0 159 2957 914 549 2043 1999 57 54 102 1945 1887 527 365
internal_count=3116 159 2957 914 549 2043 1999 57 54 102 1945 1887 527 365
is_linear=0
shrinkage=0.05


Tree=11
num_leaves=14
num_cat=0
split_feature=14 1 14 13 1 14 14 0 0 0 0 0 9
split_gain=1.0647e+07 2.15011e+06 1.96457e+06 292423 75328.4 28801.7 5205.9 817.349 338.656 4.65661e-10 2.32831e-10 2.32831e-10 4.54747e-13
threshold=360.00000000000006 2.8186699954093055 127.50000000000001 50.000000000000007 1.965038216877397 97.500000000000014 67.500000000000014 38370.000000000007 36930.000000000007 57750.000000000007 66090.000000000015 70770.000000000015 0.1294095225512602
decision_type=2 2 2 2 2 2 2 2 2 2 2 2 2
left_child=2 9 5 12 10 6 8 -3 -1 -2 -5 -8 -4
right_child=1 7 3 4 -6 -7 11 -9 -10 -11 -12 -13 -14
leaf_value=-2.2088244574410574 8.2576408386230469 20.58164316813151 0.15223982334136965 1.8586400985717775 4.8448406219482427 -0.27436025142669679 -1.554160499572754 20.202442932128907 -1.951974441065933 8.2576408386230469 1.8586400985717775 -1.554160499572754 0.15223982334136965
leaf_weight=21 81 27 344 474 22 44 1913 30 33 21 53 32 21
leaf_count=21 81 27 344 474 22 44 1913 30 33 21 53 32 21
internal_value=0 12.6041 -0.677733 1.24908 1.97831 -1.53975 -1.56761 20.3821 -2.05186 8.25764 1.85864 -1.55416 0.15224
internal_weight=0 159 2957 914 549 2043 1999 57 54 102 527 1945 365
internal_count=3116 159 2957 914 549 2043 1999 57 54 102 527 1945 365
is_linear=0
shrinkage=0.05


Tree=12
num_leaves=11
num_cat=0
split_feature=14 1 14 13 1 14 14 0 9 0
split_gain=9.60896e+06 1.94047e+06 1.77302e+06 263912 67983.9 25993.6 4698.33 737.661 328.385 1.16415e-10
threshold=360.00000000000006 2.8186699954093055 127.50000000000001 50.000000000000007 1.965038216877397 97.500000000000014 67.500000000000014 38370.000000000007 -0.60355339059327384 30930.000000000004
decision_type=2 2 2 2 2 2 2 2 2 2
left_child=2 -2 5 -4 9 6 8 -3 -1 -5
right_child=1 7 3 4 -6 -7 -8 -9 -10 -11
leaf_value=-1.8509077361135775 7.8447593688964847 19.552561442057293 0.14462783336639404 1.7657081604003908 4.6025985717773441 -0.26064224243164064 -1.4764524459838868 19.192320251464846 -2.103832926068987 1.7657081604003908
leaf_weight=33 102 27 365 57 22 44 1945 30 21 470
leaf_count=33 102 27 365 57 22 44 1945 30 21 470
internal_value=0 11.9739 -0.643847 1.18662 1.87939 -1.46276 -1.48922 19.363 -1.94927 1.76571
internal_weight=0 159 2957 914 549 2043 1999 57 54 527
internal_count=3116 159 2957 914 549 2043 1999 57 54 527
is_linear=0
shrinkage=0.05


Tree=13
num_leaves=13
num_cat=0
split_feature=14 1 14 13 1 14 14 0 11 0 0 0
split_gain=8.67208e+06 1.75128e+06 1.60015e+06 238181 61355.5 23459.2 4240.24 665.735 317.358 2.32831e-10 1.16415e-10 7.27596e-12
threshold=360.00000000000006 2.8186699954093055 127.50000000000001 50.000000000000007 1.965038216877397 97.500000000000014 67.500000000000014 38370.000000000007 0.8117449009293668 69270.000000000015 67890.000000000015 71280.000000000015
decision_type=2 2 2 2 2 2 2 2 2 2 2 2
left_child=2 -2 5 -4 10 6 8 -3 -1 -8 -5 -11
right_child=1 7 3 4 -6 -7 9 -9 -10 11 -12 -13
leaf_value=-1.7588382720947267 7.4525207519531254 18.574932352701822 0.13739643096923829 1.6774227142333986 4.3724685668945318 -0.24761011600494387 -1.4026298522949219 18.232704162597656 -2.009846124649048 -1.4026298522949219 1.6774227142333986 -1.4026298522949219
leaf_weight=34 102 27 365 496 22 44 1892 30 20 29 31 24
leaf_count=34 102 27 365 496 22 44 1892 30 20 29 31 24
internal_value=0 11.3752 -0.611654 1.12729 1.78542 -1.38963 -1.41476 18.3948 -1.8518 -1.40263 1.67742 -1.40263
internal_weight=0 159 2957 914 549 2043 1999 57 54 1945 527 53
internal_count=3116 159 2957 914 549 2043 1999 57 54 1945 527 53
is_linear=0
shrinkage=0.05


Tree=14
num_leaves=14
num_cat=0
split_feature=14 1 14 13 1 14 14 0 9 0 0 0 0
split_gain=7.82656e+06 1.58053e+06 1.44414e+06 214958 55373.3 21171.9 3826.82 600.827 293.427 1.16415e-10 5.82077e-11 1.45519e-11 1.13687e-13
threshold=360.00000000000006 2.8186699954093055 127.50000000000001 50.000000000000007 1.965038216877397 97.500000000000014 67.500000000000014 38370.000000000007 -0.60355339059327384 67590.000000000015 61170.000000000007 63330.000000000007 49710.000000000007
decision_type=2 2 2 2 2 2 2 2 2 2 2 2 2
left_child=2 -2 5 -4 9 6 8 -3 -1 10 -5 -12 -7
right_child=1 7 3 4 -6 12 -8 -9 -10 -11 11 -13 -14
leaf_value=-1.6662369236801611 7.07989501953125 17.646186319986978 0.13052661418914796 1.593551540374756 4.1538452148437504 -0.23522961139678955 -1.3324983596801758 17.321069335937501 -1.9053206443786621 1.593551540374756 1.593551540374756 1.593551540374756 -0.23522961139678955
leaf_weight=33 102 27 365 420 22 24 1945 30 21 34 27 46 20
leaf_count=33 102 27 365 420 22 24 1945 30 21 34 27 46 20
internal_value=0 10.8065 -0.581072 1.07093 1.69615 -1.32015 -1.34403 17.4751 -1.75921 1.59355 1.59355 1.59355 -0.23523
internal_weight=0 159 2957 914 549 2043 1999 57 54 527 493 73 44
internal_count=3116 159 2957 914 549 2043 1999 57 54 527 493 73 44
is_linear=0
shrinkage=0.05


Tree=15
num_leaves=16
num_cat=0
split_feature=14 1 14 13 1 14 14 0 0 0 0 0 0 0 0
split_gain=7.06347e+06 1.42642e+06 1.30334e+06 194000 49974.4 19107.7 3453.7 542.249 284.609 2.32831e-10 2.32831e-10 5.82077e-11 7.27596e-12 4.54747e-13 1.13687e-13
threshold=360.00000000000006 2.8186699954093055 127.50000000000001 50.000000000000007 1.965038216877397 97.500000000000014 67.500000000000014 38370.000000000007 36930.000000000007 57750.000000000007 67590.000000000015 58950.000000000007 69510.000000000015 66150.000000000015 49710.000000000007
decision_type=2 2 2 2 2 2 2 2 2 2 2 2 2 2 2
left_child=2 9 5 13 11 6 8 -3 -1 -2 -8 -5 -12 -4 -7
right_child=1 7 3 4 -6 14 10 -9 -10 -11 12 -13 -14 -15 -16
leaf_value=-1.8151479448590959 6.725900268554688 16.76387736002604 0.12400028705596924 1.5138739585876466 3.9461528778076174 -0.22346813678741456 -1.2658734321594238 16.455015563964846 -1.5796838384686094 6.725900268554688 -1.2658734321594238 1.5138739585876466 -1.2658734321594238 0.12400028705596924 -0.22346813678741456
leaf_weight=21 81 27 327 389 22 24 1852 30 33 21 43 138 50 38 20
leaf_count=21 81 27 327 389 22 24 1852 30 33 21 43 138 50 38 20
internal_value=0 10.2661 -0.552018 1.01738 1.61134 -1.25414 -1.27682 16.6013 -1.67125 6.7259 -1.26587 1.51387 -1.26587 0.124 -0.223468
internal_weight=0 159 2957 914 549 2043 1999 57 54 102 1945 527 93 365 44
internal_count=3116 159 2957 914 549 2043 1999 57 54 102 1945 527 93 365 44
is_linear=0
shrinkage=0.05


Tree=16
num_leaves=13
num_cat=0
split_feature=14 1 14 13 1 14 14 0 11 0 0 0
split_gain=6.37478e+06 1.28735e+06 1.17626e+06 175085 45101.9 17244.7 3116.97 489.378 280.91 2.32831e-10 2.32831e-10 1.16415e-10
threshold=360.00000000000006 2.8186699954093055 127.50000000000001 50.000000000000007 1.965038216877397 97.500000000000014 67.500000000000014 38370.000000000007 0.8117449009293668 57750.000000000007 69090.000000000015 65190.000000000007
decision_type=2 2 2 2 2 2 2 2 2 2 2 2
left_child=2 9 5 -4 11 6 8 -3 -1 -2 -8 -5
right_child=1 7 3 4 -6 -7 10 -9 -10 -11 -12 -13
leaf_value=-1.5002259478849524 6.3896053314208991 15.925683085123698 0.11780027151107789 1.4381802558898926 3.7488452911376955 -0.21229472160339358 -1.2025796890258791 15.632264709472658 -1.7363804388046267 6.3896053314208991 -1.2025796890258791 1.4381802558898926
leaf_weight=34 81 27 365 464 22 44 1887 30 20 21 58 63
leaf_count=34 81 27 365 464 22 44 1887 30 20 21 58 63
internal_value=0 9.75284 -0.524417 0.966513 1.53078 -1.19143 -1.21298 15.7713 -1.58769 6.38961 -1.20258 1.43818
internal_weight=0 159 2957 914 549 2043 1999 57 54 102 1945 527
internal_count=3116 159 2957 914 549 2043 1999 57 54 102 1945 527
is_linear=0
shrinkage=0.05


Tree=17
num_leaves=14
num_cat=0
split_feature=14 1 14 13 1 14 14 0 0 0 0 0 0
split_gain=5.75324e+06 1.16183e+06 1.06158e+06 158014 40704.5 15563.3 2813.06 441.663 254.284 2.32831e-10 1.16415e-10 5.82077e-11 2.27374e-13
threshold=360.00000000000006 2.8186699954093055 127.50000000000001 50.000000000000007 1.965038216877397 97.500000000000014 67.500000000000014 38370.000000000007 36930.000000000007 57330.000000000007 69270.000000000015 61530.000000000007 67950.000000000015
decision_type=2 2 2 2 2 2 2 2 2 2 2 2 2
left_child=2 9 5 12 11 6 8 -3 -1 -2 -8 -5 -4
right_child=1 7 3 4 -6 -7 10 -9 -10 -11 -12 -13 -14
leaf_value=-1.6443188122340613 6.0701251983642583 15.129398600260416 0.11191025972366334 1.3662712097167971 3.5614028930664063 -0.20167999267578127 -1.1424507141113283 14.850651550292969 -1.4217524846394858 6.0701251983642583 -1.1424507141113283 1.3662712097167971 0.11191025972366334
leaf_weight=21 78 27 345 429 22 44 1892 30 33 24 53 98 20
leaf_count=21 78 27 345 429 22 44 1892 30 33 24 53 98 20
internal_value=0 9.2652 -0.498196 0.918187 1.45424 -1.13186 -1.15233 14.9827 -1.50831 6.07013 -1.14245 1.36627 0.11191
internal_weight=0 159 2957 914 549 2043 1999 57 54 102 1945 527 365
internal_count=3116 159 2957 914 549 2043 1999 57 54 102 1945 527 365
is_linear=0
shrinkage=0.05


Tree=18
num_leaves=14
num_cat=0
split_feature=14 1 14 13 1 14 14 0 11 0 0 0 0
split_gain=5.1923e+06 1.04855e+06 958072 142608 36735.8 14045.9 2538.79 398.6 251.086 2.32831e-10 5.82077e-11 2.91038e-11 2.27374e-13
threshold=360.00000000000006 2.8186699954093055 127.50000000000001 50.000000000000007 1.965038216877397 97.500000000000014 67.500000000000014 38370.000000000007 0.8117449009293668 61920.000000000007 66990.000000000015 62970.000000000007 67950.000000000015
decision_type=2 2 2 2 2 2 2 2 2 2 2 2 2
left_child=2 -2 5 12 10 6 8 -3 -1 -8 -5 -11 -4
right_child=1 7 3 4 -6 -7 9 -9 -10 11 -12 -13 -14
leaf_value=-1.3501994020798627 5.7666187286376953 14.372928873697916 0.10631474256515504 1.2979577064514161 3.3833328247070313 -0.191595995426178 -1.0853281974792481 14.108119201660157 -1.5734660482406617 -1.0853281974792481 1.2979577064514161 -1.0853281974792481 0.10631474256515504
leaf_weight=34 102 27 345 484 22 44 1632 30 20 45 43 268 20
leaf_count=34 102 27 345 484 22 44 1632 30 20 45 43 268 20
internal_value=0 8.80194 -0.473286 0.872278 1.38152 -1.07527 -1.09472 14.2336 -1.43289 -1.08533 1.29796 -1.08533 0.106315
internal_weight=0 159 2957 914 549 2043 1999 57 54 1945 527 313 365
internal_count=3116 159 2957 914 549 2043 1999 57 54 1945 527 313 365
is_linear=0
shrinkage=0.05


Tree=19
num_leaves=12
num_cat=0
split_feature=14 1 14 13 1 14 14 0 9 0 0
split_gain=4.68605e+06 946319 864660 128703 33154.1 12676.4 2291.26 420.586 244.183 1.16415e-10 5.82077e-11
threshold=360.00000000000006 2.8186699954093055 127.50000000000001 50.000000000000007 1.965038216877397 97.500000000000014 67.500000000000014 36510.000000000007 -0.60355339059327384 61920.000000000007 68310.000000000015
decision_type=2 2 2 2 2 2 2 2 2 2 2
left_child=2 -2 5 -4 10 6 8 -3 -1 -8 -5
right_child=1 7 3 4 -6 -7 9 -9 -10 -11 -12
leaf_value=-1.2764291445414226 5.4782878875732424 13.362615966796875 0.10099900960922242 1.2330597877502443 3.2141662597656251 -0.18201619386672974 -1.031061840057373 13.63770419034091 -1.4945302282060897 -1.031061840057373 1.2330597877502443
leaf_weight=33 102 24 365 502 22 44 1632 33 21 313 25
leaf_count=33 102 24 365 502 22 44 1632 33 21 313 25
internal_value=0 8.36184 -0.449622 0.828664 1.31245 -1.0215 -1.03998 13.5219 -1.36125 -1.03106 1.23306
internal_weight=0 159 2957 914 549 2043 1999 57 54 1945 527
internal_count=3116 159 2957 914 549 2043 1999 57 54 1945 527
is_linear=0
shrinkage=0.05


Tree=20
num_leaves=12
num_cat=0
split_feature=14 1 14 13 1 14 14 0 11 0 0
split_gain=4.22916e+06 854053 780355 116155 29921.5 11440.5 2067.86 395.554 224.349 1.16415e-10 2.27374e-13
threshold=360.00000000000006 2.8186699954093055 127.50000000000001 50.000000000000007 1.965038216877397 97.500000000000014 67.500000000000014 38370.000000000007 0.8117449009293668 71040.000000000015 51750.000000000007
decision_type=2 2 2 2 2 2 2 2 2 2 2
left_child=2 -2 5 10 -5 6 8 -3 -1 -8 -4
right_child=1 7 3 4 -6 -7 9 -9 -10 -11 -12
leaf_value=-1.2150191082673913 5.2043735504150392 12.984623887803821 0.095949053764343262 1.1714068412780763 3.0534580230712893 -0.1729153871536255 -0.97950868606567387 12.720828247070314 -1.4260639905929566 -0.97950868606567387 0.095949053764343262
leaf_weight=34 102 27 214 527 22 44 1918 30 20 27 151
leaf_count=34 102 27 214 527 22 44 1918 30 20 27 151
internal_value=0 7.94375 -0.427141 0.787231 1.24683 -0.970428 -0.987982 12.8458 -1.29318 -0.979509 0.0959491
internal_weight=0 159 2957 914 549 2043 1999 57 54 1945 365
internal_count=3116 159 2957 914 549 2043 1999 57 54 1945 365
is_linear=0
shrinkage=0.05


Tree=21
num_leaves=14
num_cat=0
split_feature=14 1 14 13 1 14 14 0 9 0 0 0 0
split_gain=3.81682e+06 770783 704271 104830 27004.2 10325 1866.24 415.212 218.242 1.16415e-10 1.16415e-10 1.16415e-10 2.91038e-11
threshold=360.00000000000006 2.8186699954093055 127.50000000000001 50.000000000000007 1.965038216877397 97.500000000000014 67.500000000000014 36510.000000000007 -0.60355339059327384 57750.000000000007 71280.000000000015 69690.000000000015 67050.000000000015
decision_type=2 2 2 2 2 2 2 2 2 2 2 2 2
left_child=2 9 5 -4 12 6 8 -3 -1 -2 11 -8 -5
right_child=1 7 3 4 -6 -7 10 -9 -10 -11 -12 -13 -14
leaf_value=-1.1483392715454102 4.9441547393798828 12.045253849029542 0.091151601076126104 1.1128364562988282 2.9007850646972657 -0.16426961421966554 -0.93053331375122073 12.3185791015625 -1.3545303753444129 4.9441547393798828 -0.93053331375122073 -0.93053331375122073 1.1128364562988282
leaf_weight=33 81 24 365 487 22 44 1901 33 21 21 24 20 40
leaf_count=33 81 24 365 487 22 44 1901 33 21 21 24 20 40
internal_value=0 7.54656 -0.405784 0.747869 1.18448 -0.921907 -0.938583 12.2035 -1.22852 4.94415 -0.930533 -0.930533 1.11284
internal_weight=0 159 2957 914 549 2043 1999 57 54 102 1945 1921 527
internal_count=3116 159 2957 914 549 2043 1999 57 54 102 1945 1921 527
is_linear=0
shrinkage=0.05


Tree=22
num_leaves=14
num_cat=0
split_feature=14 1 14 13 1 14 14 0 0 0 0 0 0
split_gain=3.44468e+06 695632 635604 94608.7 24371.3 9318.33 1684.28 392.433 211.608 1.16415e-10 5.82077e-11 7.27596e-12 2.27374e-13
threshold=360.00000000000006 2.8186699954093055 127.50000000000001 50.000000000000007 1.965038216877397 97.500000000000014 67.500000000000014 38370.000000000007 36930.000000000007 53970.000000000007 62070.000000000007 67890.000000000015 66150.000000000015
decision_type=2 2 2 2 2 2 2 2 2 2 2 2 2
left_child=2 9 5 12 10 6 8 -3 -1 -2 -5 -12 -4
right_child=1 7 3 4 -6 -7 -8 -9 -10 -11 11 -13 -14
leaf_value=-1.2911742210388184 4.6969470977783203 11.731611463758682 0.086594021320343023 1.0571946144104005 2.7557456970214846 -0.15605614185333253 -0.88400659561157235 11.468858337402345 -1.0881411841421416 4.6969470977783203 1.0571946144104005 1.0571946144104005 0.086594021320343023
leaf_weight=21 75 27 327 432 22 44 1945 30 33 27 64 31 38
leaf_count=21 75 27 327 432 22 44 1945 30 33 27 64 31 38
internal_value=0 7.16923 -0.385495 0.710476 1.12526 -0.875811 -0.891654 11.5933 -1.1671 4.69695 1.05719 1.05719 0.086594
internal_weight=0 159 2957 914 549 2043 1999 57 54 102 527 95 365
internal_count=3116 159 2957 914 549 2043 1999 57 54 102 527 95 365
is_linear=0
shrinkage=0.05


Tree=23
num_leaves=15
num_cat=0
split_feature=14 1 14 13 1 14 14 0 11 0 0 0 0 0
split_gain=3.10882e+06 627808 573633 85384.4 21995.1 8409.79 1520.07 409.994 198.484 1.16415e-10 1.16415e-10 2.91038e-11 7.27596e-12 1.13687e-13
threshold=360.00000000000006 2.8186699954093055 127.50000000000001 50.000000000000007 1.965038216877397 97.500000000000014 67.500000000000014 36510.000000000007 0.8117449009293668 53970.000000000007 70770.000000000015 62070.000000000007 68310.000000000015 67410.000000000015
decision_type=2 2 2 2 2 2 2 2 2 2 2 2 2 2
left_child=2 9 5 13 11 6 8 -3 -1 -2 -8 -5 -13 -4
right_child=1 7 3 4 -6 -7 10 -9 -10 -11 -12 12 -14 -15
leaf_value=-1.0352225359748393 4.4620998382568358 10.856410884857178 0.082264322042465213 1.0043349266052246 2.6179584503173832 -0.14825333356857301 -0.8398062705993653 11.128013194691052 -1.2337292408943177 4.4620998382568358 -0.8398062705993653 1.0043349266052246 1.0043349266052246 0.082264322042465213
leaf_weight=34 75 24 336 432 22 44 1913 33 20 27 32 70 25 29
leaf_count=34 75 24 336 432 22 44 1913 33 20 27 32 70 25 29
internal_value=0 6.81077 -0.36622 0.674952 1.069 -0.832021 -0.847071 11.0137 -1.10874 4.4621 -0.839806 1.00433 1.00433 0.0822643
internal_weight=0 159 2957 914 549 2043 1999 57 54 102 1945 527 95 365
internal_count=3116 159 2957 914 549 2043 1999 57 54 102 1945 527 95 365
is_linear=0
shrinkage=0.05


Tree=24
num_leaves=13
num_cat=0
split_feature=14 1 14 13 1 14 14 0 0 0 0 0
split_gain=2.80571e+06 566596 517704 77059.4 19850.6 7589.83 1371.86 389.254 189.109 1.16415e-10 2.91038e-11 2.91038e-11
threshold=360.00000000000006 2.8186699954093055 127.50000000000001 50.000000000000007 1.965038216877397 97.500000000000014 67.500000000000014 38370.000000000007 36930.000000000007 58470.000000000007 68310.000000000015 65250.000000000007
decision_type=2 2 2 2 2 2 2 2 2 2 2 2
left_child=2 -2 5 -4 10 6 8 -3 -1 -8 11 -5
right_child=1 7 3 4 -6 -7 9 -9 -10 -11 -12 -13
leaf_value=-1.1706006458827429 4.2389945983886719 10.600701141357423 0.078151106834411621 0.95411815643310549 2.487060546875 -0.14084066152572633 -0.79781594276428225 10.339014434814453 -0.97866455424915666 -0.79781594276428225 0.95411815643310549 0.95411815643310549
leaf_weight=21 102 27 365 467 22 44 1454 30 33 491 25 35
leaf_count=21 102 27 365 467 22 44 1454 30 33 491 25 35
internal_value=0 6.47023 -0.347909 0.641204 1.01555 -0.79042 -0.804718 10.463 -1.05331 -0.797816 0.954118 0.954118
internal_weight=0 159 2957 914 549 2043 1999 57 54 1945 527 502
internal_count=3116 159 2957 914 549 2043 1999 57 54 1945 527 502
is_linear=0
shrinkage=0.05


Tree=25
num_leaves=13
num_cat=0
split_feature=14 1 14 13 1 14 14 0 9 0 0 0
split_gain=2.53215e+06 511353 467228 69546.1 17915.1 6849.83 1238.1 404.921 183.44 1.16415e-10 5.82077e-11 2.91038e-11
threshold=360.00000000000006 2.8186699954093055 127.50000000000001 50.000000000000007 1.965038216877397 97.500000000000014 67.500000000000014 36510.000000000007 -0.60355339059327384 57330.000000000007 71040.000000000015 66570.000000000015
decision_type=2 2 2 2 2 2 2 2 2 2 2 2
left_child=2 9 5 -4 11 6 8 -3 -1 -2 -8 -5
right_child=1 7 3 4 -6 -7 10 -9 -10 -11 -12 -13
leaf_value=-0.92712652900002235 4.0270450592041014 9.7835548400878913 0.074243551492691046 0.90641222000122079 2.3627075195312499 -0.13379863500595093 -0.75792517662048342 10.05347172130238 -1.1161638872964044 4.0270450592041014 -0.75792517662048342 0.90641222000122079
leaf_weight=33 78 24 365 481 22 44 1918 33 21 24 27 46
leaf_count=33 78 24 365 481 22 44 1918 33 21 24 27 46
internal_value=0 6.14672 -0.330514 0.609144 0.96477 -0.750899 -0.764482 9.93982 -1.00064 4.02705 -0.757925 0.906412
internal_weight=0 159 2957 914 549 2043 1999 57 54 102 1945 527
internal_count=3116 159 2957 914 549 2043 1999 57 54 102 1945 527
is_linear=0
shrinkage=0.05


Tree=26
num_leaves=12
num_cat=0
split_feature=14 1 14 13 1 14 14 0 11 0 0
split_gain=2.28527e+06 461496 421673 62765.4 16168.4 6181.97 1117.39 386.024 175.637 1.16415e-10 3.63798e-12
threshold=360.00000000000006 2.8186699954093055 127.50000000000001 50.000000000000007 1.965038216877397 97.500000000000014 67.500000000000014 38370.000000000007 0.8117449009293668 67890.000000000015 71040.000000000015
decision_type=2 2 2 2 2 2 2 2 2 2 2
left_child=2 -2 5 -4 -5 6 8 -3 -1 -8 -11
right_child=1 7 3 4 -6 -7 9 -9 -10 10 -12
leaf_value=-0.88144878499648149 3.8256927490234376 9.5799886915418835 0.070531374216079717 0.86109161376953125 2.2445722579956056 -0.12710870504379274 -0.72002892494201665 9.3193901062011726 -1.0681813263893127 -0.72002892494201665 -0.72002892494201665
leaf_weight=34 102 27 365 527 22 44 1864 30 20 54 27
leaf_count=34 102 27 365 527 22 44 1864 30 20 54 27
internal_value=0 5.83938 -0.313988 0.578687 0.916532 -0.713354 -0.726258 9.44283 -0.950609 -0.720029 -0.720029
internal_weight=0 159 2957 914 549 2043 1999 57 54 1945 81
internal_count=3116 159 2957 914 549 2043 1999 57 54 1945 81
is_linear=0
shrinkage=0.05


Tree=27
num_leaves=12
num_cat=0
split_feature=14 1 14 13 1 14 14 0 9 0 0
split_gain=2.06246e+06 416500 380560 56645.7 14592 5579.23 1008.44 399.986 163.919 5.82077e-11 1.13687e-13
threshold=360.00000000000006 2.8186699954093055 127.50000000000001 50.000000000000007 1.965038216877397 97.500000000000014 67.500000000000014 36510.000000000007 -0.60355339059327384 67890.000000000015 41730.000000000007
decision_type=2 2 2 2 2 2 2 2 2 2 2
left_child=2 -2 5 10 -5 6 8 -3 -1 -8 -4
right_child=1 7 3 4 -6 -7 9 -9 -10 -11 -12
leaf_value=-0.83358553973111238 3.6344081878662111 8.8153778076171871 0.067004805803298956 0.81803703308105469 2.1323434829711916 -0.12075326442718506 -0.68402748107910161 9.0836446588689626 -1.0122818333762031 -0.68402748107910161 0.067004805803298956
leaf_weight=33 102 24 165 527 22 44 1864 33 21 81 200
leaf_count=33 102 24 165 527 22 44 1864 33 21 81 200
internal_value=0 5.54741 -0.298288 0.549753 0.870705 -0.677686 -0.689945 8.97069 -0.903079 -0.684027 0.0670048
internal_weight=0 159 2957 914 549 2043 1999 57 54 1945 365
internal_count=3116 159 2957 914 549 2043 1999 57 54 1945 365
is_linear=0
shrinkage=0.05


Tree=28
num_leaves=14
num_cat=0
split_feature=14 1 14 13 1 14 14 0 0 0 0 0 0
split_gain=1.86137e+06 375892 343455 51122.8 13169.3 5035.25 910.12 382.752 158.934 5.82077e-11 5.82077e-11 1.45519e-11 1.45519e-11
threshold=360.00000000000006 2.8186699954093055 127.50000000000001 50.000000000000007 1.965038216877397 97.500000000000014 67.500000000000014 38370.000000000007 36930.000000000007 70650.000000000015 68550.000000000015 67050.000000000015 63330.000000000007
decision_type=2 2 2 2 2 2 2 2 2 2 2 2 2
left_child=2 -2 5 -4 11 6 8 -3 -1 10 -8 12 -5
right_child=1 7 3 4 -6 -7 9 -9 -10 -11 -12 -13 -14
leaf_value=-0.96545448303222658 3.4526878356933595 8.6587304857042096 0.063654565811157235 0.77713522911071786 2.025726318359375 -0.11471560001373292 -0.64982609748840336 8.3992385864257812 -0.7894964955069802 -0.64982609748840336 -0.64982609748840336 0.77713522911071786 0.77713522911071786
leaf_weight=21 102 27 365 447 22 44 1873 30 33 34 38 40 40
leaf_count=21 102 27 365 447 22 44 1873 30 33 34 38 40 40
internal_value=0 5.27004 -0.283374 0.522265 0.82717 -0.643802 -0.655448 8.52216 -0.857925 -0.649826 -0.649826 0.777135 0.777135
internal_weight=0 159 2957 914 549 2043 1999 57 54 1945 1911 527 487
internal_count=3116 159 2957 914 549 2043 1999 57 54 1945 1911 527 487
is_linear=0
shrinkage=0.05


Tree=29
num_leaves=13
num_cat=0
split_feature=14 1 14 13 1 14 14 0 11 0 0 0
split_gain=1.67988e+06 339242 309968 46138.3 11885.3 4544.31 821.383 395.173 155.451 5.82077e-11 1.45519e-11 1.81899e-12
threshold=360.00000000000006 2.8186699954093055 127.50000000000001 50.000000000000007 1.965038216877397 97.500000000000014 67.500000000000014 36510.000000000007 0.8117449009293668 70770.000000000015 66990.000000000015 68550.000000000015
decision_type=2 2 2 2 2 2 2 2 2 2 2 2
left_child=2 -2 5 -4 10 6 8 -3 -1 -8 -5 -12
right_child=1 7 3 4 -6 -7 9 -9 -10 -11 11 -13
leaf_value=-0.74996365659377151 3.2800533294677736 7.9416725158691408 0.060471832752227783 0.73827843666076665 1.9244400024414063 -0.10897982120513916 -0.61733479499816901 8.2083204789595179 -0.92563844442367549 -0.61733479499816901 0.73827843666076665 0.73827843666076665
leaf_weight=34 102 24 365 484 22 44 1913 33 20 32 21 22
leaf_count=34 102 24 365 484 22 44 1913 33 20 32 21 22
internal_value=0 5.00654 -0.269205 0.496152 0.785811 -0.611612 -0.622675 8.09605 -0.815028 -0.617335 0.738278 0.738278
internal_weight=0 159 2957 914 549 2043 1999 57 54 1945 527 43
internal_count=3116 159 2957 914 549 2043 1999 57 54 1945 527 43
is_linear=0
shrinkage=0.05


Tree=30
num_leaves=14
num_cat=0
split_feature=14 1 14 13 1 14 14 0 0 0 0 0 0
split_gain=1.51609e+06 306166 279746 41639.8 10726.4 4101.24 741.298 379.445 142.006 5.82077e-11 1.45519e-11 5.68434e-14 2.84217e-14
threshold=360.00000000000006 2.8186699954093055 127.50000000000001 50.000000000000007 1.965038216877397 97.500000000000014 67.500000000000014 38370.000000000007 36930.000000000007 71280.000000000015 66150.000000000015 30930.000000000004 49710.000000000007
decision_type=2 2 2 2 2 2 2 2 2 2 2 2 2
left_child=2 -2 5 11 10 6 8 -3 -1 -8 -5 -4 -7
right_child=1 7 3 4 -6 12 9 -9 -10 -11 -12 -13 -14
leaf_value=-0.87591911043439596 3.1160505294799807 7.8272289699978304 0.057448244094848638 0.70136451721191406 1.8282180786132813 -0.10353082418441772 -0.58646802902221684 7.5688606262207037 -0.70959560220891782 -0.58646802902221684 0.70136451721191406 0.057448244094848638 -0.10353082418441772
leaf_weight=21 102 27 46 478 22 24 1921 30 33 24 49 319 20
leaf_count=21 102 27 46 478 22 24 1921 30 33 24 49 319 20
internal_value=0 4.75621 -0.255745 0.471344 0.746521 -0.581031 -0.591541 7.69125 -0.774277 -0.586468 0.701365 0.0574482 -0.103531
internal_weight=0 159 2957 914 549 2043 1999 57 54 1945 527 365 44
internal_count=3116 159 2957 914 549 2043 1999 57 54 1945 527 365 44
is_linear=0
shrinkage=0.05


Tree=31
num_leaves=14
num_cat=0
split_feature=14 1 14 13 1 14 0 0 4 9 0 0 0
split_gain=1.36827e+06 276315 252471 37579.9 9680.62 3701.37 719.477 390.48 89.3615 114.622 2.91038e-11 1.45519e-11 5.68434e-14
threshold=360.00000000000006 2.8186699954093055 127.50000000000001 50.000000000000007 1.965038216877397 97.500000000000014 21990.000000000004 36510.000000000007 14.305000000000001 -0.70710678118654757 67410.000000000015 64230.000000000007 67950.000000000015
decision_type=2 2 2 2 2 2 2 2 2 2 2 2 2
left_child=2 -2 5 12 11 6 -1 -3 9 -8 -10 -5 -4
right_child=1 7 3 4 -6 -7 8 -9 10 -11 -12 -13 -14
leaf_value=-0.85308671678815573 2.9602479934692383 7.1532272338867191 0.054575830698013306 0.6662962913513184 1.7368072509765626 -0.098354285955429083 -0.70370478630065925 7.4182872425426147 -0.5571446418762207 -0.55352873537275527 -0.5571446418762207 0.6662962913513184 0.054575830698013306
leaf_weight=21 102 24 345 456 22 44 24 33 1825 27 102 71 20
leaf_count=21 102 24 345 456 22 44 24 33 1825 27 102 71 20
internal_value=0 4.5184 -0.242958 0.447777 0.709195 -0.55198 -0.561964 7.30668 -0.558874 -0.6242 -0.557145 0.666296 0.0545758
internal_weight=0 159 2957 914 549 2043 1999 57 1978 51 1927 527 365
internal_count=3116 159 2957 914 549 2043 1999 57 1978 51 1927 527 365
is_linear=0
shrinkage=0.05


Tree=32
num_leaves=14
num_cat=0
split_feature=14 1 14 13 1 14 0 0 4 9 0 0 0
split_gain=1.23487e+06 249374 227855 33915.9 8736.76 3340.49 649.328 376.109 80.6487 103.446 2.91038e-11 1.45519e-11 5.68434e-14
threshold=360.00000000000006 2.8186699954093055 127.50000000000001 50.000000000000007 1.965038216877397 97.500000000000014 21990.000000000004 38370.000000000007 14.305000000000001 -0.70710678118654757 63690.000000000007 67590.000000000015 54870.000000000007
decision_type=2 2 2 2 2 2 2 2 2 2 2 2 2
left_child=2 -2 5 12 11 6 -1 -3 9 -8 -10 -5 -4
right_child=1 7 3 4 -6 -7 8 -9 10 -11 -12 -13 -14
leaf_value=-0.81043240683419371 2.8122356414794925 7.0767329745822485 0.05184704065322876 0.63298149108886725 1.6499668121337892 -0.093436574935913091 -0.66851954460144047 6.8195030212402346 -0.52928743362426756 -0.52585231728023951 -0.52928743362426756 0.63298149108886725 0.05184704065322876
leaf_weight=21 102 27 230 493 22 44 24 30 1682 27 245 34 135
leaf_count=21 102 27 230 493 22 44 24 30 1682 27 245 34 135
internal_value=0 4.29248 -0.23081 0.425388 0.673735 -0.524381 -0.533866 6.94135 -0.53093 -0.59299 -0.529287 0.632981 0.051847
internal_weight=0 159 2957 914 549 2043 1999 57 1978 51 1927 527 365
internal_count=3116 159 2957 914 549 2043 1999 57 1978 51 1927 527 365
is_linear=0
shrinkage=0.05


Tree=33
num_leaves=14
num_cat=0
split_feature=14 1 14 13 1 14 14 0 9 0 0 0 0
split_gain=1.11447e+06 225060 205639 30609.1 7884.92 3014.79 613.881 385.894 148.859 3.79814 5.82077e-11 2.91038e-11 5.68434e-14
threshold=360.00000000000006 2.8186699954093055 127.50000000000001 50.000000000000007 1.965038216877397 97.500000000000014 67.500000000000014 36510.000000000007 -0.60355339059327384 22890.000000000004 57750.000000000007 71280.000000000015 67530.000000000015
decision_type=2 2 2 2 2 2 2 2 2 2 2 2 2
left_child=2 10 5 12 -5 6 8 -3 -1 -8 -2 -11 -4
right_child=1 7 3 4 -6 -7 9 -9 -10 11 -12 -13 -14
leaf_value=-0.60724017836830835 2.6716238021850587 6.4417294025421148 0.049254688620567325 0.60133242607116699 1.5674684524536133 -0.088764744997024539 -0.48427381174904965 6.7052284240722662 -0.77752955641065336 -0.50282301902770998 2.6716238021850587 -0.50282301902770998 0.049254688620567325
leaf_weight=33 81 24 339 527 22 44 28 33 21 1893 21 24 26
leaf_count=33 81 24 339 527 22 44 28 33 21 1893 21 24 26
internal_value=0 4.07786 -0.219269 0.404119 0.640048 -0.498162 -0.507173 6.59428 -0.673464 -0.502556 2.67162 -0.502823 0.0492547
internal_weight=0 159 2957 914 549 2043 1999 57 54 1945 102 1917 365
internal_count=3116 159 2957 914 549 2043 1999 57 54 1945 102 1917 365
is_linear=0
shrinkage=0.05


Tree=34
num_leaves=14
num_cat=0
split_feature=14 1 14 13 1 14 0 0 4 9 0 0 0
split_gain=1.00581e+06 203117 185589 27624.7 7116.14 2720.85 581.79 372.752 54.3332 101.344 0.00154623 2.91038e-11 5.68434e-14
threshold=360.00000000000006 2.8186699954093055 127.50000000000001 50.000000000000007 1.965038216877397 97.500000000000014 21990.000000000004 38370.000000000007 14.305000000000001 -0.70710678118654757 23730.000000000004 71040.000000000015 66150.000000000015
decision_type=2 2 2 2 2 2 2 2 2 2 2 2 2
left_child=2 -2 5 12 -5 6 -1 -3 9 -8 -10 -12 -4
right_child=1 7 3 4 -6 -7 8 -9 10 -11 11 -13 -14
leaf_value=-0.74360239846365794 2.5380426406860352 6.3993462880452476 0.046791952848434452 0.57126579284667967 1.4890950202941895 -0.084326505661010742 -0.60473155975341797 6.1432666778564453 -0.47810346429998224 -0.46352137194739451 -0.47768187522888184 -0.47768187522888184 0.046791952848434452
leaf_weight=21 102 27 327 527 22 44 24 30 22 27 1878 27 38
leaf_count=21 102 27 327 527 22 44 24 30 22 27 1878 27 38
internal_value=0 3.87397 -0.208306 0.383913 0.608046 -0.473253 -0.481814 6.26457 -0.479035 -0.529973 -0.477687 -0.477682 0.046792
internal_weight=0 159 2957 914 549 2043 1999 57 1978 51 1927 1905 365
internal_count=3116 159 2957 914 549 2043 1999 57 1978 51 1927 1905 365
is_linear=0
shrinkage=0.05


Tree=35
num_leaves=15
num_cat=0
split_feature=14 1 14 13 1 14 14 0 0 0 0 0 0 0
split_gain=907742 183313 167494 24931.3 6422.32 2455.57 533.176 381.411 139.882 7.56394 9.38511e-07 2.91038e-11 2.91038e-11 7.27596e-12
threshold=360.00000000000006 2.8186699954093055 127.50000000000001 50.000000000000007 1.965038216877397 97.500000000000014 67.500000000000014 36510.000000000007 36930.000000000007 22890.000000000004 24960.000000000004 42930.000000000007 67830.000000000015 63330.000000000007
decision_type=2 2 2 2 2 2 2 2 2 2 2 2 2 2
left_child=2 11 5 -4 13 6 8 -3 -1 -8 -11 -2 -12 -5
right_child=1 7 3 4 -6 -7 9 -9 -10 10 12 -13 -14 -15
leaf_value=-0.71357763494764059 2.4111406326293947 5.7996757507324226 0.044452357292175296 0.54270248413085942 1.414640235900879 -0.080110180377960208 -0.42762105124337335 6.0616396123712715 -0.54850279851393269 -0.45378842883639869 -0.45379781723022461 2.4111406326293947 -0.45379781723022461 0.54270248413085942
leaf_weight=21 54 24 365 447 22 44 28 33 33 27 1803 48 87 80
leaf_count=21 54 24 365 447 22 44 28 33 33 27 1803 48 87 80
internal_value=0 3.68027 -0.197891 0.364717 0.577644 -0.449591 -0.457723 5.95134 -0.612699 -0.453421 -0.453798 2.41114 -0.453798 0.542702
internal_weight=0 159 2957 914 549 2043 1999 57 54 1945 1917 102 1890 527
internal_count=3116 159 2957 914 549 2043 1999 57 54 1945 1917 102 1890 527
is_linear=0
shrinkage=0.05


Tree=36
num_leaves=15
num_cat=0
split_feature=14 1 14 13 1 14 0 0 4 9 0 0 0 0
split_gain=819237 165440 151164 22500.5 5796.14 2216.15 522.798 369.38 35.0862 99.1198 0.00862468 6.1118e-10 2.91038e-11 7.27596e-12
threshold=360.00000000000006 2.8186699954093055 127.50000000000001 50.000000000000007 1.965038216877397 97.500000000000014 21990.000000000004 38370.000000000007 14.305000000000001 -0.70710678118654757 23730.000000000004 25530.000000000004 53970.000000000007 65730.000000000015
decision_type=2 2 2 2 2 2 2 2 2 2 2 2 2 2
left_child=2 12 5 -4 13 6 -1 -3 9 -8 -10 -12 -2 -5
right_child=1 7 3 4 -6 -7 8 -9 10 -11 11 -13 -14 -15
leaf_value=-0.68299867085048138 2.290583610534668 5.787939919365777 0.042229738831520085 0.51556739807128904 1.3439083099365234 -0.07610467672348023 -0.54706983566284184 5.5330211639404299 -0.43210359486666594 -0.40741766028934062 -0.43110811927101828 -0.43110790252685549 2.290583610534668 0.51556739807128904
leaf_weight=21 75 27 365 471 22 44 24 30 22 27 33 1872 27 56
leaf_count=21 75 27 365 471 22 44 24 30 22 27 33 1872 27 56
internal_value=0 3.49625 -0.187996 0.346481 0.548761 -0.427111 -0.434837 5.65377 -0.432203 -0.473136 -0.431119 -0.431108 2.29058 0.515567
internal_weight=0 159 2957 914 549 2043 1999 57 1978 51 1927 1905 102 527
internal_count=3116 159 2957 914 549 2043 1999 57 1978 51 1927 1905 102 527
is_linear=0
shrinkage=0.05


Tree=37
num_leaves=16
num_cat=0
split_feature=14 1 14 13 1 14 0 0 4 9 0 0 0 0 0
split_gain=739361 149310 136425 20306.7 5231.02 2000.07 471.825 377.024 31.6653 89.4556 0.00778305 3.63798e-10 1.45519e-11 7.27596e-12 2.84217e-14
threshold=360.00000000000006 2.8186699954093055 127.50000000000001 50.000000000000007 1.965038216877397 97.500000000000014 21990.000000000004 36510.000000000007 14.305000000000001 -0.70710678118654757 23730.000000000004 25530.000000000004 68910.000000000015 66570.000000000015 64770.000000000007
decision_type=2 2 2 2 2 2 2 2 2 2 2 2 2 2 2
left_child=2 -2 5 14 13 6 -1 -3 9 -8 -10 -12 -13 -5 -4
right_child=1 7 3 4 -6 -7 8 -9 10 -11 11 12 -14 -15 -16
leaf_value=-0.64884873798915321 2.1760543823242187 5.2202949523925781 0.040118250250816348 0.48978900909423828 1.2767128944396973 -0.072299438714981082 -0.51971635818481443 5.4807479858398445 -0.41049838933077726 -0.38704678482479521 -0.40955269553444601 -0.40955252647399903 -0.40955252647399903 0.48978900909423828 0.040118250250816348
leaf_weight=21 102 24 314 481 22 44 24 33 22 27 33 1807 65 46 51
leaf_count=21 102 24 314 481 22 44 24 33 22 27 33 1807 65 46 51
internal_value=0 3.32144 -0.178596 0.329157 0.521323 -0.405756 -0.413095 5.37108 -0.410593 -0.44948 -0.409563 -0.409553 -0.409553 0.489789 0.0401183
internal_weight=0 159 2957 914 549 2043 1999 57 1978 51 1927 1905 1872 527 365
internal_count=3116 159 2957 914 549 2043 1999 57 1978 51 1927 1905 1872 527 365
is_linear=0
shrinkage=0.05


Tree=38
num_leaves=16
num_cat=0
split_feature=14 1 14 13 1 14 14 0 9 0 0 0 0 0 0
split_gain=667273 134752 123124 18326.8 4720.99 1805.07 449.878 365.997 145.761 18.2766 2.88496e-05 1.45519e-11 1.45519e-11 7.27596e-12 5.68434e-14
threshold=360.00000000000006 2.8186699954093055 127.50000000000001 50.000000000000007 1.965038216877397 97.500000000000014 67.500000000000014 38370.000000000007 -0.60355339059327384 22890.000000000004 24960.000000000004 70770.000000000015 55710.000000000007 32730.000000000004 58950.000000000007
decision_type=2 2 2 2 2 2 2 2 2 2 2 2 2 2 2
left_child=2 -2 5 14 13 6 8 -3 -1 -8 -11 12 -12 -5 -4
right_child=1 7 3 4 -6 -7 9 -9 -10 10 11 -13 -14 -15 -16
leaf_value=-0.46926519365021679 2.0672515869140624 5.2360810597737633 0.038112339377403263 0.46529955863952638 1.2128771781921388 -0.068684470653533933 -0.34838416406086514 4.9823326110839847 -0.63777318171092445 -0.38902282185024689 -0.38907487392425538 -0.38907487392425538 -0.38907487392425538 0.46529955863952638 0.038112339377403263
leaf_weight=33 102 27 266 85 22 44 28 30 21 27 1253 32 605 442 99
leaf_count=33 102 27 266 85 22 44 28 30 21 27 1253 32 605 442 99
internal_value=0 3.15537 -0.169666 0.312699 0.495257 -0.385468 -0.392441 5.10253 -0.534796 -0.388488 -0.389074 -0.389075 -0.389075 0.4653 0.0381123
internal_weight=0 159 2957 914 549 2043 1999 57 54 1945 1917 1890 1858 527 365
internal_count=3116 159 2957 914 549 2043 1999 57 54 1945 1917 1890 1858 527 365
is_linear=0
shrinkage=0.05


Tree=39
num_leaves=16
num_cat=0
split_feature=14 1 14 13 1 14 0 0 4 9 0 0 0 0 0
split_gain=602214 121614 111119 16539.9 4260.7 1629.07 426.339 372.726 19.0086 88.09 0.028968 2.44909e-08 2.91038e-11 1.45519e-11 7.27596e-12
threshold=360.00000000000006 2.8186699954093055 127.50000000000001 50.000000000000007 1.965038216877397 97.500000000000014 21990.000000000004 36510.000000000007 14.305000000000001 -0.70710678118654757 23730.000000000004 25530.000000000004 57750.000000000007 71280.000000000015 66090.000000000015
decision_type=2 2 2 2 2 2 2 2 2 2 2 2 2 2 2
left_child=2 12 5 -4 14 6 -1 -3 9 -8 -10 -12 -2 -13 -5
right_child=1 7 3 4 -6 -7 8 -9 10 -11 11 13 -14 -15 -16
leaf_value=-0.59692003386361259 1.9638891220092773 4.6974761962890623 0.036206722259521484 0.44203457832336429 1.1522333145141601 -0.065250247716903687 -0.47026725610097247 4.9564405267888851 -0.37144594192504887 -0.33861425055397887 -0.36962250796231361 -0.36962113380432132 1.9638891220092773 -0.36962113380432132 0.44203457832336429
leaf_weight=21 81 24 365 474 22 44 24 33 22 27 33 1848 21 24 53
leaf_count=21 81 24 365 474 22 44 24 33 22 27 33 1848 21 24 53
internal_value=0 2.9976 -0.161183 0.297064 0.470494 -0.366195 -0.372819 4.8474 -0.370439 -0.400569 -0.369642 -0.369621 1.96389 -0.369621 0.442035
internal_weight=0 159 2957 914 549 2043 1999 57 1978 51 1927 1905 102 1872 527
internal_count=3116 159 2957 914 549 2043 1999 57 1978 51 1927 1905 102 1872 527
is_linear=0
shrinkage=0.05


Tree=40
num_leaves=14
num_cat=0
split_feature=14 1 14 13 1 14 14 0 0 0 0 0 0
split_gain=543498 109756 100285 14927.3 3845.28 1470.24 394.492 362.607 136.908 23.3515 8.62879e-05 2.91038e-11 9.09495e-12
threshold=360.00000000000006 2.8186699954093055 127.50000000000001 50.000000000000007 1.965038216877397 97.500000000000014 67.500000000000014 38370.000000000007 36930.000000000007 22890.000000000004 24960.000000000004 27570.000000000004 25770.000000000004
decision_type=2 2 2 2 2 2 2 2 2 2 2 2 2
left_child=2 -2 5 -4 -5 6 8 -3 -1 -8 -11 12 -12
right_child=1 7 3 4 -6 -7 9 -9 -10 10 11 -13 -14
leaf_value=-0.58728356361389167 1.8656946182250977 4.7379645453559034 0.034396386146545409 0.41993284225463867 1.0946216583251953 -0.061987733840942388 -0.305145263671875 4.4853939056396488 -0.42397262761087129 -0.35105004840426979 -0.35114003608101296 -0.3511400699615479 -0.3511400699615479
leaf_weight=21 102 27 365 527 22 44 28 30 33 27 38 1805 47
leaf_count=21 102 27 365 527 22 44 28 30 33 27 38 1805 47
internal_value=0 2.84772 -0.153124 0.282211 0.44697 -0.347885 -0.354178 4.60503 -0.487482 -0.350477 -0.351139 -0.35114 -0.35114
internal_weight=0 159 2957 914 549 2043 1999 57 54 1945 1917 1890 85
internal_count=3116 159 2957 914 549 2043 1999 57 54 1945 1917 1890 85
is_linear=0
shrinkage=0.05


Tree=41
num_leaves=17
num_cat=0
split_feature=14 1 14 13 1 14 0 0 4 9 0 0 0 0 0 0
split_gain=490507 99055 90507.3 13471.9 3470.36 1326.89 386.35 368.514 10.3719 86.5724 0.0672964 1.46785e-07 1.45519e-11 1.45519e-11 7.27596e-12 7.10543e-15
threshold=360.00000000000006 2.8186699954093055 127.50000000000001 50.000000000000007 1.965038216877397 97.500000000000014 21990.000000000004 36510.000000000007 14.305000000000001 -0.70710678118654757 23730.000000000004 25530.000000000004 57750.000000000007 68910.000000000015 34230.000000000007 49710.000000000007
decision_type=2 2 2 2 2 2 2 2 2 2 2 2 2 2 2 2
left_child=2 12 5 -4 14 6 -1 -3 9 -8 -10 -12 -2 -13 -5 -7
right_child=1 7 3 4 -6 15 8 -9 10 -11 11 13 -14 -15 -16 -17
leaf_value=-0.54980149269104006 1.7724098205566408 4.2257041931152344 0.032676565647125247 0.39893622398376466 1.0398905754089356 -0.058888345956802368 -0.42555527687072758 4.4832008361816404 -0.3363644274798307 -0.29504121144612633 -0.33358643271706323 -0.33358306884765626 1.7724098205566408 -0.33358306884765626 0.39893622398376466 -0.058888345956802368
leaf_weight=21 81 24 365 115 22 24 24 33 22 27 33 1807 21 65 412 20
leaf_count=21 81 24 365 115 22 24 24 33 22 27 33 1807 21 65 412 20
internal_value=0 2.70534 -0.145468 0.268101 0.424621 -0.330491 -0.336469 4.37478 -0.334204 -0.35646 -0.333615 -0.333583 1.77241 -0.333583 0.398936 -0.0588883
internal_weight=0 159 2957 914 549 2043 1999 57 1978 51 1927 1905 102 1872 527 44
internal_count=3116 159 2957 914 549 2043 1999 57 1978 51 1927 1905 102 1872 527 44
is_linear=0
shrinkage=0.05


Tree=42
num_leaves=15
num_cat=0
split_feature=14 1 14 13 1 14 0 0 4 9 0 0 0 0
split_gain=442683 89397.1 81682.9 12158.4 3132 1197.52 359.214 348.681 9.3606 78.1316 0.0607349 1.31506e-07 1.45519e-11 2.84217e-14
threshold=360.00000000000006 2.8186699954093055 127.50000000000001 50.000000000000007 1.965038216877397 97.500000000000014 38370.000000000007 21990.000000000004 14.305000000000001 -0.70710678118654757 23730.000000000004 25530.000000000004 69090.000000000015 66570.000000000015
decision_type=2 2 2 2 2 2 2 2 2 2 2 2 2 2
left_child=2 -2 5 13 -5 7 -3 -1 9 -9 -10 -12 -13 -4
right_child=1 6 3 4 -6 -7 -8 8 10 -11 11 12 -14 -15
leaf_value=-0.52231142861502511 1.6837894439697267 4.2883505927191843 0.031042736768722535 0.37898941040039064 0.9878960609436036 -0.055943930149078371 4.0369644165039062 -0.40427751541137696 -0.31954621401700112 -0.28028914531071986 -0.31690710891376844 -0.31690392494201663 -0.31690392494201663 0.031042736768722535
leaf_weight=21 102 27 333 527 22 44 30 24 22 27 33 1814 58 32
leaf_count=21 102 27 333 527 22 44 30 24 22 27 33 1814 58 32
internal_value=0 2.57007 -0.138194 0.254696 0.40339 -0.313966 4.15604 -0.319645 -0.317494 -0.338637 -0.316934 -0.316904 -0.316904 0.0310427
internal_weight=0 159 2957 914 549 2043 57 1999 1978 51 1927 1905 1872 365
internal_count=3116 159 2957 914 549 2043 57 1999 1978 51 1927 1905 1872 365
is_linear=0
shrinkage=0.05


Tree=43
num_leaves=15
num_cat=0
split_feature=14 1 14 13 1 14 0 14 9 0 0 0 0 0
split_gain=399521 80680.9 73718.8 10972.9 2826.63 1080.76 364.381 339.381 141.952 36.2957 0.000452867 5.52973e-10 1.45519e-11 3.63798e-12
threshold=360.00000000000006 2.8186699954093055 127.50000000000001 50.000000000000007 1.965038216877397 97.500000000000014 36510.000000000007 67.500000000000014 -0.60355339059327384 22890.000000000004 24960.000000000004 25770.000000000004 57330.000000000007 68310.000000000015
decision_type=2 2 2 2 2 2 2 2 2 2 2 2 2 2
left_child=2 12 5 -4 13 7 -3 8 -1 -9 -11 -12 -2 -5
right_child=1 6 3 4 -6 -7 -8 9 -10 10 11 -13 -14 -15
leaf_value=-0.36263709501786667 1.5995999336242677 3.8000011920928958 0.029490602016448975 0.36003992557525638 0.93850126266479494 -0.053146731853485112 4.0560499017888851 -0.2437145369393485 -0.52892915436199739 -0.30085248682234023 -0.30105852955266049 -0.30105872154235841 1.5995999336242677 0.36003992557525638
leaf_weight=33 78 24 365 502 22 44 33 28 21 27 38 1852 24 25
leaf_count=33 78 24 365 502 22 44 33 28 21 27 38 1852 24 25
internal_value=0 2.44157 -0.131285 0.241961 0.383221 -0.298268 3.94824 -0.303663 -0.427306 -0.30023 -0.301056 -0.301059 1.5996 0.36004
internal_weight=0 159 2957 914 549 2043 57 1999 54 1945 1917 1890 102 527
internal_count=3116 159 2957 914 549 2043 57 1999 54 1945 1917 1890 102 527
is_linear=0
shrinkage=0.05


Tree=44
num_leaves=17
num_cat=0
split_feature=14 1 14 13 1 14 0 0 4 9 0 0 0 0 0 0
split_gain=360568 72814.5 66531.2 9903.07 2551.04 975.386 355.824 317.831 4.22987 77.3065 0.126878 7.73543e-07 7.27596e-12 7.27596e-12 3.63798e-12 1.42109e-14
threshold=360.00000000000006 2.8186699954093055 127.50000000000001 50.000000000000007 1.965038216877397 97.500000000000014 38370.000000000007 21990.000000000004 14.305000000000001 -0.70710678118654757 23730.000000000004 25530.000000000004 67410.000000000015 25770.000000000004 62550.000000000007 56370.000000000007
decision_type=2 2 2 2 2 2 2 2 2 2 2 2 2 2 2 2
left_child=2 -2 5 15 14 7 -3 -1 9 -9 -10 -12 13 -13 -5 -4
right_child=1 6 3 4 -6 -7 -8 8 10 -11 11 12 -14 -15 -16 -17
leaf_value=-0.48197286469595774 1.5196199417114258 3.8825106302897137 0.028016072511672974 0.34203794002532961 0.89157619476318362 -0.0504893958568573 3.6323135375976565 -0.36593175729115807 -0.28982487808574331 -0.24259976612197029 -0.28601350567557593 -0.28600580692291261 -0.28600578308105468 -0.28600578308105468 0.34203794002532961 0.028016072511672974
leaf_weight=21 102 27 245 440 22 44 30 24 22 27 33 20 102 1750 87 120
leaf_count=21 102 27 245 440 22 44 30 24 22 27 33 20 102 1750 87 120
internal_value=0 2.31949 -0.12472 0.229863 0.36406 -0.283354 3.75083 -0.28848 -0.286426 -0.300638 -0.28605 -0.286006 -0.286006 -0.286006 0.342038 0.0280161
internal_weight=0 159 2957 914 549 2043 57 1999 1978 51 1927 1905 1872 1770 527 365
internal_count=3116 159 2957 914 549 2043 57 1999 1978 51 1927 1905 1872 1770 527 365
is_linear=0
shrinkage=0.05


Tree=45
num_leaves=19
num_cat=0
split_feature=14 1 14 13 1 14 0 14 0 0 0 0 0 0 0 0 0 0
split_gain=325413 65715.1 60044.4 8937.52 2302.31 880.286 360.322 300.521 133.298 40.8603 0.000840882 2.06637e-09 1.45519e-11 7.27596e-12 3.63798e-12 3.63798e-12 1.42109e-14 3.55271e-15
threshold=360.00000000000006 2.8186699954093055 127.50000000000001 50.000000000000007 1.965038216877397 97.500000000000014 36510.000000000007 67.500000000000014 36930.000000000007 22890.000000000004 24960.000000000004 25770.000000000004 53730.000000000007 71280.000000000015 67050.000000000015 62430.000000000007 57090.000000000007 59430.000000000007
decision_type=2 2 2 2 2 2 2 2 2 2 2 2 2 2 2 2 2 2
left_child=2 12 5 16 14 7 -3 8 -1 -9 -11 -12 -2 -13 15 -5 -4 -18
right_child=1 6 3 4 -6 -7 -8 9 -10 10 11 13 -14 -15 -16 -17 17 -19
leaf_value=-0.48888155477387568 1.4436388969421388 3.4158757925033569 0.026615267992019655 0.32493603229522705 0.84699735641479501 -0.047964924573898317 3.6704945304177024 -0.21086138742310659 -0.32773858019799901 -0.27142448160383437 -0.27170513554623255 -0.2717055082321167 1.4436388969421388 -0.2717055082321167 0.32493603229522705 0.32493603229522705 0.026615267992019655 0.026615267992019655
leaf_weight=21 72 24 253 438 22 44 33 28 33 27 38 1828 30 24 40 49 21 91
leaf_count=21 72 24 253 438 22 44 33 28 33 27 38 1828 30 24 40 49 21 91
internal_value=0 2.20351 -0.118484 0.21837 0.345857 -0.269187 3.56329 -0.274056 -0.390405 -0.270826 -0.271702 -0.271706 1.44364 -0.271706 0.324936 0.324936 0.0266153 0.0266153
internal_weight=0 159 2957 914 549 2043 57 1999 54 1945 1917 1890 102 1852 527 487 365 112
internal_count=3116 159 2957 914 549 2043 57 1999 54 1945 1917 1890 102 1852 527 487 365 112
is_linear=0
shrinkage=0.05


Tree=46
num_leaves=18
num_cat=0
split_feature=14 1 14 13 1 14 0 0 11 1 1 0 0 0 0 0 0
split_gain=293685 59307.9 54190.1 8066.11 2077.84 794.458 352.436 290.518 2.73485 50.6575 49.1881 0.206475 6.52279e-05 5.67332e-07 3.63798e-12 3.63798e-12 3.63798e-12
threshold=360.00000000000006 2.8186699954093055 127.50000000000001 50.000000000000007 1.965038216877397 97.500000000000014 38370.000000000007 21990.000000000004 1.0000000180025095e-35 1.2652926786322125 1.2652926786322125 24240.000000000004 25770.000000000004 25770.000000000004 68310.000000000015 68910.000000000015 66090.000000000015
decision_type=2 2 2 2 2 2 2 2 2 2 2 2 2 2 2 2 2
left_child=2 -2 5 -4 14 7 -3 -1 10 11 12 -10 -9 -13 -5 -14 -15
right_child=1 6 3 4 -6 -7 -8 8 9 -11 -12 13 15 16 -16 -17 -18
leaf_value=-0.4453453063964844 1.3714570045471193 3.5161766264173724 0.025284504890441897 0.30868923664093018 0.80464754104614267 -0.045566678047180176 3.2671733856201173 -0.25802873730659487 -0.26280705630779266 -0.17795626513659957 -0.32138004601001741 -0.25812719583511357 -0.25812022686004638 -0.25812022686004638 0.30868923664093018 -0.25812022686004638 -0.25812022686004638
leaf_weight=21 102 27 365 502 22 44 30 20 24 20 32 30 728 1005 25 24 95
leaf_count=21 102 27 365 502 22 44 30 20 24 20 32 30 728 1005 25 24 95
internal_value=0 2.09334 -0.11256 0.207451 0.328564 -0.255727 3.38512 -0.260353 -0.258389 -0.256851 -0.260636 -0.258218 -0.258118 -0.25812 0.308689 -0.25812 -0.25812
internal_weight=0 159 2957 914 549 2043 57 1999 1978 1174 804 1154 772 1130 527 752 1100
internal_count=3116 159 2957 914 549 2043 57 1999 1978 1174 804 1154 772 1130 527 752 1100
is_linear=0
shrinkage=0.05


Tree=47
num_leaves=16
num_cat=0
split_feature=14 1 14 13 1 14 0 14 9 0 0 0 0 0 0
split_gain=265051 53525.4 48906.6 7279.67 1875.25 716.998 356.335 266.955 126.923 45.0739 0.00161707 0.000169242 1.45519e-11 7.27596e-12 7.27596e-12
threshold=360.00000000000006 2.8186699954093055 127.50000000000001 50.000000000000007 1.965038216877397 97.500000000000014 36510.000000000007 67.500000000000014 -0.60355339059327384 22890.000000000004 24960.000000000004 25770.000000000004 43170.000000000007 69690.000000000015 68910.000000000015
decision_type=2 2 2 2 2 2 2 2 2 2 2 2 2 2 2
left_child=2 12 5 -4 -5 7 -3 8 -1 -9 -11 -12 -2 14 -13
right_child=1 6 3 4 -6 -7 -8 9 -10 10 11 13 -14 -15 -16
leaf_value=-0.29584482799876821 1.3028841018676758 3.0692731618881228 0.024020278453826906 0.29325478076934813 0.76441516876220705 -0.043288344144821168 3.3224791440096766 -0.18131066475595747 -0.45308781283951949 -0.24482666474801526 -0.24532082018099333 -0.24521422386169434 1.3028841018676758 -0.24521422386169434 -0.24521422386169434
leaf_weight=33 57 24 365 527 22 44 33 28 21 27 38 1787 45 44 21
leaf_count=33 57 24 365 527 22 44 33 28 21 27 38 1787 45 44 21
internal_value=0 1.98867 -0.106932 0.197079 0.312136 -0.242941 3.21587 -0.247336 -0.356995 -0.244291 -0.245211 -0.245216 1.30288 -0.245214 -0.245214
internal_weight=0 159 2957 914 549 2043 57 1999 54 1945 1917 1890 102 1852 1808
internal_count=3116 159 2957 914 549 2043 57 1999 54 1945 1917 1890 102 1852 1808
is_linear=0
shrinkage=0.05


Tree=48
num_leaves=22
num_cat=0
split_feature=14 1 14 13 1 14 0 0 0 12 1 9 0 1 1 0 4 0 0 0 0
split_gain=239208 48306.6 44138.2 6569.9 1692.41 647.091 349.058 266.266 2.40706 33.7007 20.5635 19.8658 0.218941 0.000184571 1.50054e-06 2.17888e-06 6.04781e-07 1.33397e-06 3.49383e-07 3.63798e-12 2.27374e-13
threshold=360.00000000000006 2.8186699954093055 127.50000000000001 50.000000000000007 1.965038216877397 97.500000000000014 38370.000000000007 21990.000000000004 32130.000000000004 70.000000000000014 1.2652926786322125 -0.78656609248549325 23730.000000000004 0.8022005297100353 0.5657852774498372 28290.000000000004 17.100000000000005 25770.000000000004 29040.000000000004 66090.000000000015 68310.000000000015
decision_type=2 2 2 2 2 2 2 2 2 2 2 2 2 2 2 2 2 2 2 2 2
left_child=2 -2 5 -4 19 7 -3 -1 9 12 -10 -12 -9 14 16 -16 18 -18 -14 -5 -21
right_child=1 6 3 4 -6 -7 -8 8 10 -11 11 -13 13 -15 15 -17 17 -19 -20 20 -22
leaf_value=-0.41207124505724224 1.2377399444580079 3.1854974746704103 0.022819264233112337 0.27859203815460204 0.72619438171386719 -0.041123929619789126 2.9376905441284182 -0.23838431715965269 -0.23295350074768068 -0.16627144493162632 -0.30277740160624189 -0.23400281440644038 -0.2329459071159363 -0.23308162304662888 -0.23293263370340522 -0.23295350074768068 -0.23296594972963686 -0.23295350074768068 -0.23295350074768068 0.27859203815460204 0.27859203815460204
leaf_weight=21 102 27 365 474 22 44 30 20 1620 20 21 21 28 31 22 29 27 106 33 28 25
leaf_count=21 102 27 365 474 22 44 30 20 1620 20 21 21 28 31 22 29 27 106 33 28 25
internal_value=0 1.88924 -0.101586 0.187225 0.296529 -0.230794 3.05507 -0.234969 -0.233088 -0.229088 -0.233849 -0.26839 -0.233333 -0.232967 -0.232952 -0.232944 -0.232954 -0.232956 -0.23295 0.278592 0.278592
internal_weight=0 159 2957 914 549 2043 57 1999 1978 316 1662 42 296 276 245 51 194 133 61 527 53
internal_count=3116 159 2957 914 549 2043 57 1999 1978 316 1662 42 296 276 245 51 194 133 61 527 53
is_linear=0
shrinkage=0.05


Tree=49
num_leaves=31
num_cat=0
split_feature=14 1 14 13 1 14 0 0 11 1 1 0 12 0 12 0 9 0 0 1 0 1 0 0 0 0 0 0 0 0
split_gain=215885 43596.7 39834.7 5929.33 1527.4 584 352.416 240.305 2.20995 52.9166 35.6135 0.338625 0.00252296 0.00533239 0.000518132 0.000125518 9.75593e-07 1.28116e-06 4.86016e-07 2.49383e-08 9.11596e-08 1.88284e-08 4.29482e-08 2.29556e-09 1.5898e-09 7.27596e-12 3.63798e-12 3.63798e-12 1.81899e-12 2.27374e-13
threshold=360.00000000000006 2.8186699954093055 127.50000000000001 50.000000000000007 1.965038216877397 97.500000000000014 36510.000000000007 21990.000000000004 1.0000000180025095e-35 1.2652926786322125 1.2652926786322125 24240.000000000004 110.00000000000001 45570.000000000007 110.00000000000001 25770.000000000004 1.0000000180025095e-35 69510.000000000015 25770.000000000004 0.8022005297100353 34710.000000000007 0.8022005297100353 37350.000000000007 27630.000000000004 27630.000000000004 57750.000000000007 66090.000000000015 60330.000000000007 67410.000000000015 50850.000000000007
decision_type=2 2 2 2 2 2 2 2 2 2 2 2 2 2 2 2 2 2 2 2 2 2 2 2 2 2 2 2 2 2
left_child=2 25 5 -4 26 7 -3 -1 10 11 14 -10 16 -14 15 -9 18 -18 -13 23 -21 24 -23 -20 -17 -2 -5 -25 -26 -22
right_child=1 6 3 4 -6 -7 -8 8 9 -11 -12 12 13 -15 -16 21 17 -19 19 20 29 22 -24 27 28 -27 -28 -29 -30 -31
leaf_value=-0.39146768365587509 1.1758528709411622 2.7565345764160156 0.021678301692008975 0.26466243267059325 0.68988466262817383 -0.039067733287811282 3.0083442341197624 -0.22117876529693606 -0.22732551097869874 -0.13941668808460236 -0.27514074631035329 -0.22129807472229004 -0.22230573534965514 -0.22130582332611085 -0.22150194785174204 -0.22130624625993814 -0.22132216067541216 -0.22130582332611085 -0.22130624814466998 -0.22130198955535887 -0.22130582332611085 -0.2213030849184309 -0.22130582332611085 -0.22130582332611085 -0.22130582332611085 1.1758528709411622 0.26466243267059325 -0.22130582332611085 -0.22130582332611085 -0.22130582332611085
leaf_weight=21 81 24 365 474 22 44 33 20 24 20 32 21 20 40 34 23 21 28 33 20 28 21 45 695 593 21 53 183 36 41
leaf_count=21 81 24 365 474 22 44 33 20 24 20 32 21 20 40 34 23 21 28 33 20 28 21 45 695 593 21 53 183 36 41
internal_value=0 1.79477 -0.0965063 0.177863 0.281702 -0.219254 2.90232 -0.22322 -0.221434 -0.220051 -0.223454 -0.221448 -0.221324 -0.221639 -0.221311 -0.221302 -0.221306 -0.221313 -0.221306 -0.221306 -0.221305 -0.221306 -0.221305 -0.221306 -0.221306 1.17585 0.264662 -0.221306 -0.221306 -0.221306
internal_weight=0 159 2957 914 549 2043 57 1999 1978 1174 804 1154 1130 60 772 738 1070 49 1021 1000 89 718 66 911 652 102 527 878 629 69
internal_count=3116 159 2957 914 549 2043 57 1999 1978 1174 804 1154 1130 60 772 738 1070 49 1021 1000 89 718 66 911 652 102 527 878 629 69
is_linear=0
shrinkage=0.05


Tree=50
num_leaves=30
num_cat=0
split_feature=14 1 14 13 1 14 0 14 11 0 12 0 0 0 0 1 0 0 0 3 0 0 0 0 0 0 0 0 0
split_gain=194837 39346.1 35950.8 5351.22 1378.48 527.06 345.688 232.898 120.769 57.0536 0.00328569 0.013348 0.00438721 0.000673729 3.38147e-06 3.92647e-08 2.83732e-07 3.92263e-08 3.5725e-09 2.12162e-09 5.67525e-10 1.30103e-09 1.40972e-10 1.04592e-11 3.63798e-12 1.81899e-12 2.27374e-13 1.13687e-13 7.10543e-15
threshold=360.00000000000006 2.8186699954093055 127.50000000000001 50.000000000000007 1.965038216877397 97.500000000000014 38370.000000000007 67.500000000000014 0.8117449009293668 22890.000000000004 110.00000000000001 35730.000000000007 24960.000000000004 25770.000000000004 43770.000000000007 0.8022005297100353 32910.000000000007 64650.000000000007 27630.000000000004 79.500000000000014 68310.000000000015 69510.000000000015 37350.000000000007 60810.000000000007 66990.000000000015 60270.000000000007 57210.000000000007 71280.000000000015 58470.000000000007
decision_type=2 2 2 2 2 2 2 2 2 2 2 2 2 2 2 2 2 2 2 2 2 2 2 2 2 2 2 2 2
left_child=2 -2 5 28 25 7 -3 8 -1 -9 12 -12 -11 -14 -13 18 -17 -16 19 -15 24 -22 -18 26 -20 -5 -24 -23 -4
right_child=1 6 3 4 -6 -7 -8 9 -10 10 11 14 13 15 17 16 22 -19 20 -21 21 27 23 -25 -26 -27 -28 -29 -30
leaf_value=-0.2571359676473281 1.1170602798461915 2.8869969050089521 0.020594386756420138 0.25142931938171387 0.65539045333862311 -0.037114346027374269 2.6403888702392582 -0.13835839756897517 -0.41197855174541476 -0.20959072479834925 -0.21168489933013915 -0.21021565794944763 -0.21045605685259844 -0.2102406547915551 -0.21023977719820464 -0.21023430143083846 -0.21024065106003376 -0.21023700332641601 -0.21024053096771242 -0.21024127388000491 -0.21024004459381104 -0.21024053096771242 -0.21024053096771242 -0.21024049043655399 -0.21024053096771242 0.25142931938171387 -0.21024053096771242 -0.21024053096771242 0.020594386756420138
leaf_weight=34 102 27 259 408 22 44 30 28 20 26 20 24 37 31 26 21 27 25 1441 25 20 23 67 20 42 119 21 21 106
leaf_count=34 102 27 259 408 22 44 30 28 20 26 20 24 37 31 26 21 27 25 1441 25 20 23 67 20 42 119 21 21 106
internal_value=0 1.70504 -0.091681 0.16897 0.267617 -0.208291 2.7572 -0.212059 -0.314485 -0.209216 -0.210251 -0.210537 -0.210236 -0.210245 -0.210231 -0.21024 -0.21024 -0.210238 -0.210241 -0.210241 -0.210241 -0.21024 -0.210241 -0.210241 -0.210241 0.251429 -0.210241 -0.210241 0.0205944
internal_weight=0 159 2957 914 549 2043 57 1999 54 1945 1917 95 1822 1796 75 1759 156 51 1603 56 1547 64 135 108 1483 527 88 44 365
internal_count=3116 159 2957 914 549 2043 57 1999 54 1945 1917 95 1822 1796 75 1759 156 51 1603 56 1547 64 135 108 1483 527 88 44 365
is_linear=0
shrinkage=0.05


Tree=51
num_leaves=31
num_cat=0
split_feature=14 1 14 13 1 14 0 0 0 12 1 9 0 1 0 12 0 0 0 0 0 0 0 0 1 0 0 0 0 0
split_gain=175840 35509.8 32445.6 4829.48 1244.08 475.671 348.561 221.597 2.07372 32.2524 13.2751 17.7519 0.29964 0.000725577 1.52356e-05 1.38376e-05 1.8914e-05 1.10349e-06 2.29687e-07 3.8109e-08 1.09912e-09 9.9601e-10 6.03904e-10 1.22714e-09 2.18279e-11 1.07775e-10 7.27596e-12 3.63798e-12 1.81899e-12 7.10543e-15
threshold=360.00000000000006 2.8186699954093055 127.50000000000001 50.000000000000007 1.965038216877397 97.500000000000014 36510.000000000007 21990.000000000004 32130.000000000004 70.000000000000014 1.2652926786322125 -0.78656609248549325 23730.000000000004 0.8022005297100353 25530.000000000004 110.00000000000001 39390.000000000007 52830.000000000007 26160.000000000004 65490.000000000007 27630.000000000004 26970.000000000004 68310.000000000015 69510.000000000015 0.8022005297100353 37350.000000000007 57750.000000000007 65310.000000000007 66570.000000000015 45570.000000000007
decision_type=2 2 2 2 2 2 2 2 2 2 2 2 2 2 2 2 2 2 2 2 2 2 2 2 2 2 2 2 2 2
left_child=2 26 5 29 28 7 -3 -1 9 12 15 -12 -9 14 -14 22 -17 -18 -16 -19 21 -20 24 -24 27 -26 -2 -10 -5 -4
right_child=1 6 3 4 -6 -7 -8 8 10 -11 11 -13 13 -15 18 16 17 19 20 -21 -22 -23 23 -25 25 -27 -28 -29 -30 -31
leaf_value=-0.36302193573543007 1.0612072944641113 2.4743579864501957 0.019564667344093324 0.23885784149169922 0.62262091636657724 -0.03525862693786621 2.7247867237437857 -0.20609004080295562 -0.19972851276397707 -0.13457582920789721 -0.26070606311162314 -0.1956933515412467 -0.19969053268432618 -0.19998003782764559 -0.19972307227906727 -0.1996690895246423 -0.19971236228942871 -0.19972810177575975 -0.19972854341779436 -0.19972512396899136 -0.19972851276397707 -0.19972901493310929 -0.19972805543379352 -0.19972851276397707 -0.19972862446749653 -0.19972851276397707 1.0612072944641113 -0.19972851276397707 0.23885784149169922 0.019564667344093324
leaf_weight=21 81 24 188 481 22 44 33 20 1245 20 21 21 31 31 21 23 20 21 21 22 148 24 22 44 27 106 21 90 46 177
leaf_count=21 81 24 188 481 22 44 33 20 1245 20 21 21 31 31 21 23 20 21 21 22 148 24 22 44 27 106 21 90 46 177
internal_value=0 1.61978 -0.087097 0.160522 0.254236 -0.197877 2.61934 -0.201456 -0.199741 -0.196028 -0.200447 -0.2282 -0.20018 -0.199752 -0.199723 -0.199727 -0.199708 -0.199722 -0.199728 -0.199727 -0.199729 -0.199729 -0.199729 -0.199728 -0.199729 -0.199729 1.06121 -0.199729 0.238858 0.0195647
internal_weight=0 159 2957 914 549 2043 57 1999 1978 316 1662 42 296 276 245 1620 86 63 214 43 193 45 1534 66 1468 133 102 1335 527 365
internal_count=3116 159 2957 914 549 2043 57 1999 1978 316 1662 42 296 276 245 1620 86 63 214 43 193 45 1534 66 1468 133 102 1335 527 365
is_linear=0
shrinkage=0.05


Tree=52
num_leaves=27
num_cat=0
split_feature=14 1 14 13 1 14 0 14 0 0 12 0 0 0 0 1 0 0 0 3 0 0 0 0 0 0
split_gain=158696 32047.6 29282.2 4358.6 1122.78 429.293 342.332 206.185 120.951 59.5006 0.0129311 0.0512243 0.00603201 0.00059436 2.59649e-06 3.51723e-07 2.49269e-06 3.85918e-08 3.88536e-09 2.57126e-09 4.76575e-10 1.09333e-09 1.04819e-10 9.77707e-12 1.81899e-12 7.10543e-15
threshold=360.00000000000006 2.8186699954093055 127.50000000000001 50.000000000000007 1.965038216877397 97.500000000000014 38370.000000000007 67.500000000000014 36930.000000000007 22890.000000000004 110.00000000000001 35730.000000000007 24960.000000000004 25770.000000000004 43770.000000000007 0.8022005297100353 32910.000000000007 64650.000000000007 27630.000000000004 79.500000000000014 68310.000000000015 69510.000000000015 37350.000000000007 60810.000000000007 68550.000000000015 67950.000000000015
decision_type=2 2 2 2 2 2 2 2 2 2 2 2 2 2 2 2 2 2 2 2 2 2 2 2 2 2
left_child=2 -2 5 25 24 7 -3 8 -1 -9 12 -12 -11 -14 -13 18 -17 -16 19 -15 -20 -22 -18 -24 -5 -4
right_child=1 6 3 4 -6 -7 -8 9 -10 10 11 14 13 15 17 16 22 -19 20 -21 21 -23 23 -25 -26 -27
leaf_value=-0.38156152679806665 1.0081468582153321 2.6175379011366107 0.018586434423923492 0.22691495418548585 0.59148988723754881 -0.033495697379112246 2.3721300125122071 -0.11634713794503893 -0.22806243571368132 -0.18897897784526532 -0.19258180022239688 -0.18972034305334093 -0.18994437166162439 -0.18974220214351534 -0.18974163532257082 -0.18972358533314296 -0.18974219119107283 -0.18973888397216798 -0.18974208831787109 -0.18974288368225101 -0.18974164247512817 -0.18974208831787109 -0.18974208831787109 -0.189742049574852 0.22691495418548585 0.018586434423923492
leaf_weight=21 102 27 345 505 22 44 30 28 33 26 20 24 37 31 26 21 27 25 1483 25 20 44 88 20 22 20
leaf_count=21 102 27 345 505 22 44 30 28 33 26 20 24 37 31 26 21 27 25 1483 25 20 44 88 20 22 20
internal_value=0 1.53879 -0.0827421 0.152496 0.241525 -0.187983 2.48838 -0.191383 -0.287757 -0.188708 -0.189765 -0.190333 -0.189735 -0.189746 -0.189734 -0.189742 -0.18974 -0.18974 -0.189742 -0.189743 -0.189742 -0.189742 -0.189742 -0.189742 0.226915 0.0185864
internal_weight=0 159 2957 914 549 2043 57 1999 54 1945 1917 95 1822 1796 75 1759 156 51 1603 56 1547 64 135 108 527 365
internal_count=3116 159 2957 914 549 2043 57 1999 54 1945 1917 95 1822 1796 75 1759 156 51 1603 56 1547 64 135 108 527 365
is_linear=0
shrinkage=0.05


Tree=53
num_leaves=31
num_cat=0
split_feature=14 1 14 13 1 14 0 0 0 12 1 9 0 1 12 0 0 10 0 0 0 3 0 0 1 0 0 0 1 0
split_gain=143223 28923 26427.2 3933.64 1013.31 387.437 344.767 204.861 1.9328 33.0776 9.03486 17.773 0.420845 0.00063513 4.55256e-05 9.37574e-05 7.83849e-06 7.47459e-06 9.15063e-07 3.17498e-08 2.60025e-09 2.27453e-09 5.05679e-10 1.02659e-09 1.81899e-11 8.89031e-11 1.81899e-12 1.13687e-12 2.27374e-13 7.10543e-15
threshold=360.00000000000006 2.8186699954093055 127.50000000000001 50.000000000000007 1.965038216877397 97.500000000000014 36510.000000000007 21990.000000000004 32130.000000000004 70.000000000000014 1.2652926786322125 -0.78656609248549325 23730.000000000004 0.8022005297100353 110.00000000000001 39390.000000000007 25770.000000000004 -1.0000000180025095e-35 52830.000000000007 65490.000000000007 27630.000000000004 79.500000000000014 68310.000000000015 69510.000000000015 0.8022005297100353 36510.000000000007 55830.000000000007 41430.000000000007 0.22629596042859623 67950.000000000015
decision_type=2 2 2 2 2 2 2 2 2 2 2 2 2 2 2 2 2 2 2 2 2 2 2 2 2 2 2 2 2 2
left_child=2 -2 5 29 26 7 -3 -1 9 12 14 -12 -9 16 22 -16 17 -14 -17 -20 21 -18 24 -24 -10 -26 -5 -27 -22 -4
right_child=1 6 3 4 -6 -7 -8 8 10 -11 11 -13 13 -15 15 18 20 -19 19 -21 28 -23 23 -25 25 27 -28 -29 -30 -31
leaf_value=-0.33715909719467163 0.95773954391479499 2.2197631835937499 0.017657111585140228 0.21556921005249025 0.56191539764404297 -0.031820911169052127 2.4688254269686616 -0.18778923094272615 -0.18025498390197756 -0.11434707790613174 -0.23626763423283897 -0.17121629856881643 -0.18025301098823548 -0.18049129478393064 -0.18013119179269543 -0.18024030327796936 -0.18025509772762177 -0.18021030085427422 -0.18025463933036442 -0.18025192130695691 -0.18025498390197756 -0.18025573873519898 -0.18025456558574329 -0.18025498390197756 -0.18025509856996083 -0.18025499582290649 0.21556921005249025 -0.18025498390197756 -0.18025498390197756 0.017657111585140228
leaf_weight=21 102 24 345 350 22 44 33 20 1335 20 21 21 20 31 23 20 31 21 21 22 33 25 22 44 21 24 177 88 115 20
leaf_count=21 102 24 345 350 22 44 33 20 1335 20 21 21 20 31 23 20 31 21 21 22 33 25 22 44 21 24 177 88 115 20
internal_value=0 1.46186 -0.078605 0.144871 0.229448 -0.178584 2.36396 -0.181814 -0.180165 -0.176581 -0.180847 -0.203742 -0.180786 -0.180278 -0.180253 -0.180218 -0.180251 -0.180231 -0.180249 -0.180253 -0.180255 -0.180255 -0.180255 -0.180255 -0.180255 -0.180255 0.215569 -0.180255 -0.180255 0.0176571
internal_weight=0 159 2957 914 549 2043 57 1999 1978 316 1662 42 296 276 1620 86 245 41 63 43 204 56 1534 66 1468 133 527 112 148 365
internal_count=3116 159 2957 914 549 2043 57 1999 1978 316 1662 42 296 276 1620 86 245 41 63 43 204 56 1534 66 1468 133 527 112 148 365
is_linear=0
shrinkage=0.05


Tree=54
num_leaves=31
num_cat=0
split_feature=14 1 14 13 1 14 0 0 11 1 1 0 12 0 12 0 9 0 0 1 0 1 0 0 0 0 0 0 0 0
split_gain=129259 26103 23850.5 3550.11 914.511 349.662 338.989 184.887 1.79843 66.8605 22.9341 0.770379 0.0198692 0.041904 0.00369518 0.000382559 6.00379e-06 8.24804e-06 7.4878e-06 5.08868e-07 1.91134e-06 3.84898e-07 9.02361e-07 1.85537e-09 1.21508e-09 8.18545e-12 1.81899e-12 4.54747e-13 7.10543e-15 1.77636e-15
threshold=360.00000000000006 2.8186699954093055 127.50000000000001 50.000000000000007 1.965038216877397 97.500000000000014 38370.000000000007 21990.000000000004 1.0000000180025095e-35 1.2652926786322125 1.2652926786322125 24240.000000000004 110.00000000000001 45570.000000000007 110.00000000000001 25770.000000000004 1.0000000180025095e-35 25770.000000000004 69510.000000000015 0.8022005297100353 34710.000000000007 0.8022005297100353 37350.000000000007 27630.000000000004 27630.000000000004 67950.000000000015 67050.000000000015 43590.000000000007 61230.000000000007 64770.000000000007
decision_type=2 2 2 2 2 2 2 2 2 2 2 2 2 2 2 2 2 2 2 2 2 2 2 2 2 2 2 2 2 2
left_child=2 -2 5 28 -5 7 -3 -1 10 11 14 -10 16 -14 15 -9 17 -13 -18 23 -21 24 -23 -19 -17 -26 -25 -22 -4 -30
right_child=1 6 3 4 -6 -7 -8 8 9 -11 -12 12 13 -15 -16 21 18 19 -20 20 27 22 -24 26 25 -27 -28 -29 29 -31
leaf_value=-0.32030114872115001 0.90985260009765634 2.3742890675862629 0.016774256527423859 0.204790735244751 0.53381962776184089 -0.030229866504669189 2.1300823211669924 -0.1710201805830002 -0.18034446338812513 -0.079271500110626225 -0.21445650681853295 -0.1712102356411162 -0.17404580056667329 -0.17124276757240298 -0.17176899909973145 -0.17124260819476586 -0.17128173339934577 -0.1712426189220313 -0.17124223709106445 -0.17122467994689941 -0.1712422287464142 -0.17122968605586464 -0.17124223815070261 -0.17124223709106445 -0.17124223709106445 -0.17124226379394533 -0.17124223709106445 -0.17124223709106445 0.016774256527423859 0.016774256527423859
leaf_weight=21 102 27 289 527 22 44 30 20 24 20 32 21 20 40 34 23 21 33 28 20 20 21 45 857 604 25 21 49 25 51
leaf_count=21 102 27 289 527 22 44 30 20 24 20 32 21 20 40 34 23 21 33 28 20 20 21 45 857 604 25 21 49 25 51
internal_value=0 1.38876 -0.0746748 0.137627 0.217976 -0.169655 2.24576 -0.172724 -0.171157 -0.169909 -0.172979 -0.17148 -0.171292 -0.172177 -0.171259 -0.171236 -0.171242 -0.171241 -0.171259 -0.171242 -0.171238 -0.171242 -0.171238 -0.171242 -0.171242 -0.171242 -0.171242 -0.171242 0.0167743 0.0167743
internal_weight=0 159 2957 914 549 2043 57 1999 1978 1174 804 1154 1130 60 772 738 1070 1021 49 1000 89 718 66 911 652 629 878 69 365 76
internal_count=3116 159 2957 914 549 2043 57 1999 1978 1174 804 1154 1130 60 772 738 1070 1021 49 1000 89 718 66 911 652 629 878 69 365 76
is_linear=0
shrinkage=0.05


Tree=55
num_leaves=31
num_cat=0
split_feature=14 1 14 13 1 0 14 14 9 0 12 0 0 0 0 1 0 0 0 0 0 0 3 0 0 0 0 0 0 0
split_gain=116656 23557.9 21525.1 3203.98 825.346 341.032 315.57 183.149 117.057 69.9897 0.0255955 0.106488 0.0130874 0.00147944 4.0738e-05 8.01232e-07 6.00034e-06 5.26359e-07 6.39557e-09 1.3909e-08 3.74143e-09 2.80306e-09 2.0309e-09 1.18234e-10 1.81899e-12 9.09495e-13 9.09495e-13 9.09495e-13 9.09495e-13 1.77636e-15
threshold=360.00000000000006 2.8186699954093055 127.50000000000001 50.000000000000007 1.965038216877397 36510.000000000007 97.500000000000014 67.500000000000014 -0.60355339059327384 22890.000000000004 110.00000000000001 35730.000000000007 24960.000000000004 25770.000000000004 43770.000000000007 0.8022005297100353 32910.000000000007 64650.000000000007 68310.000000000015 69510.000000000015 37350.000000000007 27630.000000000004 79.500000000000014 60810.000000000007 52830.000000000007 68550.000000000015 66090.000000000015 50850.000000000007 64650.000000000007 49710.000000000007
decision_type=2 2 2 2 2 2 2 2 2 2 2 2 2 2 2 2 2 2 2 2 2 2 2 2 2 2 2 2 2 2
left_child=2 -2 6 -4 25 -3 7 8 -1 -9 12 -12 -11 -14 -13 18 -17 -16 21 -20 -18 22 -15 -22 -23 26 27 -5 -26 -8
right_child=1 5 3 4 -6 -7 29 9 -10 10 11 14 13 15 17 16 20 -19 19 -21 23 24 -24 -25 28 -27 -28 -29 -30 -31
leaf_value=-0.19619223321929125 0.8643599510192872 1.990060591697693 0.015935543179512023 0.19455120563507081 0.5071286201477051 2.2377700112082741 -0.028718373179435732 -0.08308560869523457 -0.34719973518734887 -0.16155649010951703 -0.16675379157066347 -0.16259390264749529 -0.16299926139212945 -0.16268021522029755 -0.16267788043388953 -0.16265150138310025 -0.16268075837029353 -0.16266771936416627 -0.16267853498458862 -0.16268012523651124 -0.16268012523651124 -0.16268012523651124 -0.16268082094192504 -0.16267999053001403 -0.16268012523651124 0.19455120563507081 0.19455120563507081 0.19455120563507081 -0.16268012523651124 -0.028718373179435732
leaf_weight=33 102 24 365 297 22 33 24 28 21 26 20 24 37 31 26 21 27 25 20 44 88 897 25 20 468 22 31 177 118 20
leaf_count=33 102 24 365 297 22 33 24 28 21 26 20 24 37 31 26 21 27 25 20 44 88 897 25 20 468 22 31 177 118 20
internal_value=0 1.31932 -0.070941 0.130746 0.207077 2.13347 -0.161172 -0.164087 -0.254917 -0.161566 -0.162712 -0.163512 -0.16267 -0.162686 -0.162648 -0.16268 -0.162676 -0.162673 -0.16268 -0.16268 -0.16268 -0.16268 -0.16268 -0.16268 -0.16268 0.194551 0.194551 0.194551 -0.16268 -0.0287184
internal_weight=0 159 2957 914 549 57 2043 1999 54 1945 1917 95 1822 1796 75 1759 156 51 1603 64 135 1539 56 108 1483 527 505 474 586 44
internal_count=3116 159 2957 914 549 57 2043 1999 54 1945 1917 95 1822 1796 75 1759 156 51 1603 64 135 1539 56 108 1483 527 505 474 586 44
is_linear=0
shrinkage=0.05


Tree=56
num_leaves=30
num_cat=0
split_feature=14 1 14 13 1 0 14 0 4 9 0 12 0 0 0 0 1 0 0 0 0 0 0 3 0 0 0 0 0
split_gain=105282 21261 19426.4 2891.59 744.875 335.663 284.802 172.05 3.49455 78.9036 1.01192 0.0222622 0.096106 0.000738764 0.00205264 3.67714e-05 7.23026e-07 5.41569e-06 4.74682e-07 5.74255e-09 1.24876e-08 3.35331e-09 2.48838e-09 1.90209e-09 1.00272e-10 1.81899e-12 1.81899e-12 9.09495e-13 1.77636e-15
threshold=360.00000000000006 2.8186699954093055 127.50000000000001 50.000000000000007 1.965038216877397 38370.000000000007 97.500000000000014 21990.000000000004 14.305000000000001 -0.70710678118654757 23730.000000000004 110.00000000000001 35730.000000000007 25770.000000000004 25530.000000000004 43770.000000000007 0.8022005297100353 32910.000000000007 64650.000000000007 68310.000000000015 69510.000000000015 37350.000000000007 27630.000000000004 79.500000000000014 60810.000000000007 67410.000000000015 66780.000000000015 60330.000000000007 49710.000000000007
decision_type=2 2 2 2 2 2 2 2 2 2 2 2 2 2 2 2 2 2 2 2 2 2 2 2 2 2 2 2 2
left_child=2 -2 6 -4 27 -3 7 -1 9 -9 -10 13 -13 14 -12 -14 19 -18 -17 22 -21 -19 23 -15 -23 26 -24 -5 -8
right_child=1 5 3 4 -6 -7 28 8 10 -11 11 12 15 16 -16 18 17 21 -20 20 -22 24 25 -25 -26 -27 -28 -29 -30
leaf_value=-0.29824529034750807 0.82114191055297858 2.1546955002678767 0.015138766169548035 0.18482364416122438 0.48177218437194824 1.9116897583007812 -0.027282455563545228 -0.20741764008998873 -0.16537551446394488 -0.082818207917390044 -0.15448404742825417 -0.15841610312461854 -0.1544641986489296 -0.15454619584545015 -0.15513375103473664 -0.15454398118532622 -0.1545189244406564 -0.15454671780268353 -0.15453433179855347 -0.15454461097717287 -0.15454611778259278 -0.15454611778259278 -0.15454611778259278 -0.15454678201675418 -0.15454599380493164 -0.15454611778259278 -0.15454611778259278 0.18482364416122438 -0.027282455563545228
leaf_weight=21 102 27 365 411 22 30 24 24 22 27 31 20 24 31 20 26 21 27 25 20 44 88 1432 25 20 27 24 116 20
leaf_count=21 102 27 365 411 22 30 24 24 22 27 31 20 24 31 20 26 21 27 25 20 44 88 1432 25 20 27 24 116 20
internal_value=0 1.25336 -0.067394 0.124209 0.196723 2.0268 -0.153113 -0.155883 -0.154372 -0.141453 -0.154714 -0.15459 -0.155336 -0.154551 -0.154739 -0.154515 -0.154546 -0.154543 -0.154539 -0.154546 -0.154546 -0.154546 -0.154546 -0.154546 -0.154546 -0.154546 -0.154546 0.184824 -0.0272825
internal_weight=0 159 2957 914 549 57 2043 1999 1978 51 1927 1905 95 1810 51 75 1759 156 51 1603 64 135 1539 56 108 1483 1456 527 44
internal_count=3116 159 2957 914 549 57 2043 1999 1978 51 1927 1905 95 1810 51 75 1759 156 51 1603 64 135 1539 56 108 1483 1456 527 44
is_linear=0
shrinkage=0.05


Tree=57
num_leaves=29
num_cat=0
split_feature=14 1 14 13 1 0 14 14 0 0 12 0 0 0 0 1 0 0 0 0 0 0 3 0 0 0 0 0
split_gain=95016.9 19188.1 17532.3 2609.66 672.25 337.353 257.034 166.39 112.79 71.4482 0.0210841 0.0867354 0.0178985 0.00121097 3.31823e-05 6.51797e-07 4.88678e-06 4.28841e-07 5.13319e-09 1.11428e-08 3.07864e-09 2.4047e-09 1.65096e-09 8.18545e-11 3.63798e-12 9.09495e-13 3.55271e-15 1.77636e-15
threshold=360.00000000000006 2.8186699954093055 127.50000000000001 50.000000000000007 1.965038216877397 36510.000000000007 97.500000000000014 67.500000000000014 36930.000000000007 22890.000000000004 110.00000000000001 35730.000000000007 24960.000000000004 25770.000000000004 43770.000000000007 0.8022005297100353 32910.000000000007 64650.000000000007 68310.000000000015 69510.000000000015 37350.000000000007 27630.000000000004 79.500000000000014 60810.000000000007 53730.000000000007 65190.000000000007 66570.000000000015 49710.000000000007
decision_type=2 2 2 2 2 2 2 2 2 2 2 2 2 2 2 2 2 2 2 2 2 2 2 2 2 2 2 2
left_child=2 24 6 26 25 -3 7 8 -1 -9 12 -12 -11 -14 -13 18 -17 -16 21 -20 -18 22 -15 -22 -2 -5 -4 -8
right_child=1 5 3 4 -6 -7 27 9 -10 10 11 14 13 15 17 16 20 -19 19 -21 23 -23 -24 -25 -26 -27 -28 -29
leaf_value=-0.32524826171852295 0.78008484840393066 1.7828227996826174 0.014381828904151918 0.17558246850967407 0.45768356323242188 2.0291924563321202 -0.025918331742286683 -0.066391740207161223 -0.17701833446820578 -0.14550311748798078 -0.15049529671669007 -0.14674099485079448 -0.14710753769487947 -0.14681889472469209 -0.14681678643593421 -0.14679297549383982 -0.1468193809191386 -0.14680761480331422 -0.14681738138198852 -0.14681880474090578 -0.14681880474090578 -0.14681880474090578 -0.14681944084167481 -0.14681869268417358 0.78008484840393066 0.17558246850967407 0.014381828904151918 -0.025918331742286683
leaf_weight=21 72 24 333 464 22 33 24 28 33 26 20 24 37 31 26 21 27 25 20 44 88 1483 25 20 30 63 32 20
leaf_count=21 72 24 333 464 22 33 24 28 33 26 20 24 37 31 26 21 27 25 20 44 88 1483 25 20 30 63 32 20
internal_value=0 1.19069 -0.0640243 0.117998 0.186887 1.92546 -0.145458 -0.148089 -0.234663 -0.145685 -0.146843 -0.14757 -0.146806 -0.146824 -0.146789 -0.146818 -0.146815 -0.146812 -0.146819 -0.146818 -0.146819 -0.146819 -0.146819 -0.146819 0.780085 0.175582 0.0143818 -0.0259183
internal_weight=0 159 2957 914 549 57 2043 1999 54 1945 1917 95 1822 1796 75 1759 156 51 1603 64 135 1539 56 108 102 527 365 44
internal_count=3116 159 2957 914 549 57 2043 1999 54 1945 1917 95 1822 1796 75 1759 156 51 1603 64 135 1539 56 108 102 527 365 44
is_linear=0
shrinkage=0.05


Tree=58
num_leaves=29
num_cat=0
split_feature=14 1 14 13 1 0 14 0 4 9 0 12 0 0 3 0 1 0 0 0 0 0 0 3 0 0 0 0
split_gain=85752.8 17317.3 15822.9 2355.22 606.705 332.355 231.973 160.452 5.57105 77.2796 1.27608 0.0181085 0.0782788 0.000722899 0.00165995 2.9951e-05 5.89251e-07 4.41278e-06 3.87526e-07 4.70209e-09 1.0229e-08 2.7419e-09 2.06819e-09 1.52284e-09 1.10617e-10 3.36513e-11 9.09495e-13 3.55271e-15
threshold=360.00000000000006 2.8186699954093055 127.50000000000001 50.000000000000007 1.965038216877397 38370.000000000007 97.500000000000014 21990.000000000004 14.305000000000001 -0.70710678118654757 23730.000000000004 110.00000000000001 35730.000000000007 25770.000000000004 72.000000000000014 43770.000000000007 0.8022005297100353 32910.000000000007 64650.000000000007 68310.000000000015 69510.000000000015 36510.000000000007 27630.000000000004 79.500000000000014 60810.000000000007 41430.000000000007 64230.000000000007 67950.000000000015
decision_type=2 2 2 2 2 2 2 2 2 2 2 2 2 2 2 2 2 2 2 2 2 2 2 2 2 2 2 2
left_child=2 -2 6 27 26 -3 7 -1 9 -9 -10 13 -13 14 -12 -14 19 -18 -17 22 -21 -19 23 -15 25 -23 -5 -4
right_child=1 5 3 4 -6 -7 -8 8 10 -11 11 12 15 16 -16 18 17 21 -20 20 -22 24 -24 -25 -26 -27 -28 -29
leaf_value=-0.27816446647047999 0.74108061790466317 1.9564508756001791 0.013662737607955933 0.16680334806442262 0.43479938507080079 1.714645576477051 -0.024622415006160737 -0.18819584921002389 -0.15162957364862617 -0.064885383237291261 -0.13991698931003441 -0.14297053217887878 -0.13940394073724746 -0.13947794821954543 -0.13934102871201257 -0.13947594991097084 -0.13945332595280238 -0.1394784893308367 -0.13946723127365113 -0.13947650909423828 -0.13947787284851074 -0.13947794139385225 -0.13947787284851074 -0.13947847270965577 -0.13947776079177857 -0.13947787284851074 0.16680334806442262 0.013662737607955933
leaf_weight=21 102 27 345 456 22 30 44 24 22 27 29 20 24 31 22 26 21 21 25 20 44 24 1483 25 20 70 71 20
leaf_count=21 102 27 345 456 22 30 44 24 22 27 29 20 24 31 22 26 21 21 25 20 44 24 1483 25 20 70 71 20
internal_value=0 1.13116 -0.0608231 0.112098 0.177543 1.82918 -0.138185 -0.140684 -0.139225 -0.122914 -0.139657 -0.139518 -0.140191 -0.139483 -0.139669 -0.13945 -0.139478 -0.139475 -0.139472 -0.139478 -0.139477 -0.139478 -0.139478 -0.139478 -0.139478 -0.139478 0.166803 0.0136627
internal_weight=0 159 2957 914 549 57 2043 1999 1978 51 1927 1905 95 1810 51 75 1759 156 51 1603 64 135 1539 56 114 94 527 365
internal_count=3116 159 2957 914 549 57 2043 1999 1978 51 1927 1905 95 1810 51 75 1759 156 51 1603 64 135 1539 56 114 94 527 365
is_linear=0
shrinkage=0.05


Tree=59
num_leaves=29
num_cat=0
split_feature=14 1 14 13 1 0 14 14 9 0 12 0 0 0 0 1 0 0 0 0 0 0 3 0 0 0 0 10
split_gain=77391.9 15628.8 14280.2 2125.58 547.551 333.728 209.356 151.841 111.222 72.6009 0.017417 0.0706467 0.02437 0.00102441 2.70233e-05 5.31312e-07 3.98098e-06 3.49267e-07 4.22915e-09 9.18419e-09 2.54181e-09 1.94814e-09 1.37265e-09 8.01492e-11 3.63798e-12 1.81899e-12 1.81899e-12 9.09495e-13
threshold=360.00000000000006 2.8186699954093055 127.50000000000001 50.000000000000007 1.965038216877397 36510.000000000007 97.500000000000014 67.500000000000014 -0.60355339059327384 22890.000000000004 110.00000000000001 35730.000000000007 24960.000000000004 25770.000000000004 43770.000000000007 0.8022005297100353 32910.000000000007 64650.000000000007 68310.000000000015 69510.000000000015 37350.000000000007 27630.000000000004 79.500000000000014 60810.000000000007 57750.000000000007 42930.000000000007 64770.000000000007 1.0000000180025095e-35
decision_type=2 2 2 2 2 2 2 2 2 2 2 2 2 2 2 2 2 2 2 2 2 2 2 2 2 2 2 2
left_child=2 24 6 -4 27 -3 7 8 -1 -9 12 -12 -11 -14 -13 18 -17 -16 21 -20 -18 22 -15 -22 25 -2 -23 -5
right_child=1 5 3 4 -6 -7 -8 9 -10 10 11 14 13 15 17 16 20 -19 19 -21 23 26 -24 -25 -26 -27 -28 -29
leaf_value=-0.15911030222972233 0.70402655601501474 1.5958591461181642 0.012979599833488465 0.15846318006515503 0.41305942535400392 1.8409013921564279 -0.02339129447937012 -0.051423480787447517 -0.30630631092048827 -0.13096735935944778 -0.13582200706005096 -0.13243374973535538 -0.13276954180485495 -0.13250405250057098 -0.13250214686760536 -0.13248066050665719 -0.13250449630949232 -0.13249386978149413 -0.1325026822090149 -0.13250397443771364 -0.13250397443771364 -0.13250397443771364 -0.13250455045700074 -0.13250386357307434 0.70402655601501474 0.70402655601501474 -0.13250397443771364 0.15846318006515503
leaf_weight=33 54 24 365 485 22 33 44 28 21 26 20 24 37 31 26 21 27 25 20 44 88 1371 25 20 21 27 112 42
leaf_count=33 54 24 365 485 22 33 44 28 21 26 20 24 37 31 26 21 27 25 20 44 88 1371 25 20 21 27 112 42
internal_value=0 1.0746 -0.0577819 0.106493 0.168666 1.73773 -0.131276 -0.13365 -0.216353 -0.131354 -0.132522 -0.133182 -0.132487 -0.132509 -0.132478 -0.132504 -0.132501 -0.132498 -0.132504 -0.132504 -0.132504 -0.132504 -0.132504 -0.132504 0.704027 0.704027 -0.132504 0.158463
internal_weight=0 159 2957 914 549 57 2043 1999 54 1945 1917 95 1822 1796 75 1759 156 51 1603 64 135 1539 56 108 102 81 1483 527
internal_count=3116 159 2957 914 549 57 2043 1999 54 1945 1917 95 1822 1796 75 1759 156 51 1603 64 135 1539 56 108 102 81 1483 527
is_linear=0
shrinkage=0.05


Tree=60
num_leaves=28
num_cat=0
split_feature=14 1 14 13 1 0 14 0 4 9 0 12 0 0 1 0 1 0 0 0 0 0 0 3 0 0 0
split_gain=69846.1 14105 12887.9 1918.34 494.165 329.066 188.943 149.932 7.83367 75.7096 1.56017 0.0147231 0.0637585 0.000737363 0.00171344 2.4398e-05 4.78991e-07 3.59243e-06 3.14981e-07 3.76895e-09 8.19563e-09 2.32967e-09 1.69348e-09 1.29484e-09 8.78799e-11 2.80806e-11 9.09495e-13
threshold=360.00000000000006 2.8186699954093055 127.50000000000001 50.000000000000007 1.965038216877397 38370.000000000007 97.500000000000014 21990.000000000004 14.305000000000001 -0.70710678118654757 23730.000000000004 110.00000000000001 35730.000000000007 25770.000000000004 0.49557424866052996 43770.000000000007 0.8022005297100353 32910.000000000007 64650.000000000007 68310.000000000015 69510.000000000015 36510.000000000007 27630.000000000004 72.000000000000014 60810.000000000007 41430.000000000007 63090.000000000007
decision_type=2 2 2 2 2 2 2 2 2 2 2 2 2 2 2 2 2 2 2 2 2 2 2 2 2 2 2
left_child=2 -2 6 -4 26 -3 7 -1 9 -9 -10 13 -13 14 -12 -14 19 -18 -17 22 -21 -19 23 -15 25 -23 -5
right_child=1 5 3 4 -6 -7 -8 8 10 -11 11 12 15 16 -16 18 17 21 -20 20 -22 24 -24 -25 -26 -27 -28
leaf_value=-0.25986446418932507 0.66882524490356454 1.7774740219116212 0.012330619990825653 0.15054001808166506 0.39240646362304688 1.5368681907653809 -0.022221729159355164 -0.17083054060737293 -0.13930754499001938 -0.048779068625083681 -0.12583858351553642 -0.12903090596199038 -0.12581205517053604 -0.12587875615466723 -0.12643218338489534 -0.12587704291710486 -0.12585662943976267 -0.12587934391839165 -0.12586918258666993 -0.12587755441665649 -0.12587877511978149 -0.12587883770465852 -0.12587877511978149 -0.12587924845078413 -0.12587867558002472 -0.12587877511978149 0.15054001808166506
leaf_weight=21 102 27 365 444 22 30 44 24 22 27 31 20 24 22 20 26 21 21 25 20 44 24 1483 34 20 70 83
leaf_count=21 102 27 365 444 22 30 44 24 22 27 31 20 24 22 20 26 21 21 25 20 44 24 1483 34 20 70 83
internal_value=0 1.02087 -0.0548928 0.101169 0.160232 1.65084 -0.124712 -0.126968 -0.125557 -0.106215 -0.126069 -0.125916 -0.126523 -0.125884 -0.126071 -0.125854 -0.125879 -0.125876 -0.125873 -0.125879 -0.125878 -0.125879 -0.125879 -0.125879 -0.125879 -0.125879 0.15054
internal_weight=0 159 2957 914 549 57 2043 1999 1978 51 1927 1905 95 1810 51 75 1759 156 51 1603 64 135 1539 56 114 94 527
internal_count=3116 159 2957 914 549 57 2043 1999 1978 51 1927 1905 95 1810 51 75 1759 156 51 1603 64 135 1539 56 114 94 527
is_linear=0
shrinkage=0.05


Tree=61
num_leaves=29
num_cat=0
split_feature=14 1 14 13 1 0 14 14 0 0 0 12 0 0 0 0 1 0 0 0 0 0 3 0 0 0 0 0
split_gain=63036.1 12729.8 11631.3 1731.3 445.984 330.154 170.521 139.176 107.202 73.4728 0.0226863 0.0101067 0.0408477 0.000869535 1.98496e-05 5.05473e-07 4.31872e-07 3.24221e-06 3.41424e-09 7.41483e-09 2.094e-09 1.58434e-09 1.13084e-09 5.07043e-11 1.81899e-12 9.09495e-13 1.13687e-13 2.84217e-14
threshold=360.00000000000006 2.8186699954093055 127.50000000000001 50.000000000000007 1.965038216877397 36510.000000000007 97.500000000000014 67.500000000000014 36930.000000000007 22890.000000000004 24960.000000000004 110.00000000000001 36690.000000000007 25770.000000000004 45570.000000000007 64650.000000000007 0.8022005297100353 32910.000000000007 68310.000000000015 69510.000000000015 37350.000000000007 27630.000000000004 79.500000000000014 60810.000000000007 67170.000000000015 57930.000000000007 48750.000000000007 71280.000000000015
decision_type=2 2 2 2 2 2 2 2 2 2 2 2 2 2 2 2 2 2 2 2 2 2 2 2 2 2 2 2
left_child=2 -2 6 -4 25 -3 7 8 -1 -9 -11 13 -13 -12 -14 -16 18 -18 21 -20 -19 22 -15 26 -23 -5 -22 -21
right_child=1 5 3 4 -6 -7 -8 9 -10 10 11 12 14 16 15 -17 17 20 19 27 23 24 -24 -25 -26 -27 -28 -29
